{"learner":{"attributes":{},"feature_names":[],"feature_types":[],"gradient_booster":{"model":{"gbtree_model_param":{"num_parallel_tree":"1","num_trees":"128"},"iteration_indptr":[0,1,2,3,4,5,6,7,8,9,10,11,12,13,14,15,16,17,18,19,20,21,22,23,24,25,26,27,28,29,30,31,32,33,34,35,36,37,38,39,40,41,42,43,44,45,46,47,48,49,50,51,52,53,54,55,56,57,58,59,60,61,62,63,64,65,66,67,68,69,70,71,72,73,74,75,76,77,78,79,80,81,82,83,84,85,86,87,88,89,90,91,92,93,94,95,96,97,98,99,100,101,102,103,104,105,106,107,108,109,110,111,112,113,114,115,116,117,118,119,120,121,122,123,124,125,126,127,128],"tree_info":[0,0,0,0,0,0,0,0,0,0,0,0,0,0,0,0,0,0,0,0,0,0,0,0,0,0,0,0,0,0,0,0,0,0,0,0,0,0,0,0,0,0,0,0,0,0,0,0,0,0,0,0,0,0,0,0,0,0,0,0,0,0,0,0,0,0,0,0,0,0,0,0,0,0,0,0,0,0,0,0,0,0,0,0,0,0,0,0,0,0,0,0,0,0,0,0,0,0,0,0,0,0,0,0,0,0,0,0,0,0,0,0,0,0,0,0,0,0,0,0,0,0,0,0,0,0,0,0],"trees":[{"base_weights":[6.313632E1,-3.828682E4,3.5892695E4,-2.6029582E4,-9.127376E3,8.265056E3,2.5463225E4],"categories":[],"categories_nodes":[],"categories_segments":[],"categories_sizes":[],"default_left":[0,0,0,0,0,0,0],"id":0,"left_children":[1,3,5,-1,-1,-1,-1],"loss_changes":[7.813192E13,9.200445E12,1.0185297E13,0E0,0E0,0E0,0E0],"parents":[2147483647,0,0,1,1,2,2],"right_children":[2,4,6,-1,-1,-1,-1],"split_conditions":[7.119E3,3.8882E4,1.23094E5,-2.6029582E4,-9.127376E3,8.265056E3,2.5463225E4],"split_indices":[2,5,5,0,0,0,0],"split_type":[0,0,0,0,0,0,0],"sum_hessian":[5.686E4,2.7464E4,2.9396E4,1.389E4,1.3574E4,1.52E4,1.4196E4],"tree_param":{"num_deleted":"0","num_feature":"200","num_nodes":"7","size_leaf_vector":"1"}},{"base_weights":[1.8810907E-1,-1.8020152E4,2.3931695E4,-1.3088551E4,-1.7410592E3,1.2015602E4,-4.1570047E4],"categories":[],"categories_nodes":[],"categories_segments":[],"categories_sizes":[],"default_left":[0,0,0,0,0,0,0],"id":1,"left_children":[1,3,5,-1,-1,-1,-1],"loss_changes":[2.4472795E13,4.764594E12,5.81982E12,0E0,0E0,0E0,0E0],"parents":[2147483647,0,0,1,1,2,2],"right_children":[2,4,6,-1,-1,-1,-1],"split_conditions":[8.454E3,4.657E3,1E0,-1.3088551E4,-1.7410592E3,1.2015602E4,-4.1570047E4],"split_indices":[2,2,68,0,0,0,0],"split_type":[0,0,0,0,0,0,0],"sum_hessian":[5.6746E4,3.2371E4,2.4375E4,1.8766E4,1.3605E4,2.3936E4,4.39E2],"tree_param":{"num_deleted":"0","num_feature":"200","num_nodes":"7","size_leaf_vector":"1"}},{"base_weights":[4.722975E1,-8.702829E3,1.6317937E4,-1.1171072E4,-1.8885922E3,8.1236577E3,-2.3623145E4],"categories":[],"categories_nodes":[],"categories_segments":[],"categories_sizes":[],"default_left":[0,0,0,0,0,0,0],"id":2,"left_children":[1,3,5,-1,-1,-1,-1],"loss_changes":[8.0781954E12,2.6365935E12,1.7120661E12,0E0,0E0,0E0,0E0],"parents":[2147483647,0,0,1,1,2,2],"right_children":[2,4,6,-1,-1,-1,-1],"split_conditions":[9.611E3,3.73E2,1E0,-1.1171072E4,-1.8885922E3,8.1236577E3,-2.3623145E4],"split_indices":[2,10,68,0,0,0,0],"split_type":[0,0,0,0,0,0,0],"sum_hessian":[5.6739E4,3.6897E4,1.9842E4,8.463E3,2.8434E4,1.9474E4,3.68E2],"tree_param":{"num_deleted":"0","num_feature":"200","num_nodes":"7","size_leaf_vector":"1"}},{"base_weights":[-1.6630333E1,-3.2034077E3,1.9044893E4,-4.1484155E3,7.179818E2,9.223393E3,-1.5006978E4],"categories":[],"categories_nodes":[],"categories_segments":[],"categories_sizes":[],"default_left":[0,0,0,0,0,0,0],"id":3,"left_children":[1,3,5,-1,-1,-1,-1],"loss_changes":[3.4503674E12,1.338985E12,3.919142E11,0E0,0E0,0E0,0E0],"parents":[2147483647,0,0,1,1,2,2],"right_children":[2,4,6,-1,-1,-1,-1],"split_conditions":[1.2611E4,5.572E3,1E0,-4.1484155E3,7.179818E2,9.223393E3,-1.5006978E4],"split_indices":[2,2,68,0,0,0,0],"split_type":[0,0,0,0,0,0,0],"sum_hessian":[5.6799E4,4.8664E4,8.135E3,2.1969E4,2.6695E4,7.991E3,1.44E2],"tree_param":{"num_deleted":"0","num_feature":"200","num_nodes":"7","size_leaf_vector":"1"}},{"base_weights":[4.4389515E1,6.6638293E2,-3.550679E4,-3.6738727E2,6.762058E3,-2.0005756E4,-9.959889E3],"categories":[],"categories_nodes":[],"categories_segments":[],"categories_sizes":[],"default_left":[0,0,0,0,0,0,0],"id":4,"left_children":[1,3,5,-1,-1,-1,-1],"loss_changes":[1.2551349E12,1.1403116E12,1.05486746E11,0E0,0E0,0E0,0E0],"parents":[2147483647,0,0,1,1,2,2],"right_children":[2,4,6,-1,-1,-1,-1],"split_conditions":[1E0,1.335E4,9.611E3,-3.6738727E2,6.762058E3,-2.0005756E4,-9.959889E3],"split_indices":[68,2,2,0,0,0,0],"split_type":[0,0,0,0,0,0,0],"sum_hessian":[5.6759E4,5.5784E4,9.75E2,5.0503E4,5.281E3,6.23E2,3.52E2],"tree_param":{"num_deleted":"0","num_feature":"200","num_nodes":"7","size_leaf_vector":"1"}},{"base_weights":[-2.2173555E1,-1.1234736E4,1.2473846E3,-6.6446606E3,-3.7373535E3,7.734956E2,-9.813624E3],"categories":[],"categories_nodes":[],"categories_segments":[],"categories_sizes":[],"default_left":[0,0,0,0,0,0,0],"id":5,"left_children":[1,3,5,-1,-1,-1,-1],"loss_changes":[8.099286E11,5.7253495E10,4.923037E11,0E0,0E0,0E0,0E0],"parents":[2147483647,0,0,1,1,2,2],"right_children":[2,4,6,-1,-1,-1,-1],"split_conditions":[1.389E4,6.782E3,1E0,-6.6446606E3,-3.7373535E3,7.734956E2,-9.813624E3],"split_indices":[5,5,68,0,0,0,0],"split_type":[0,0,0,0,0,0,0],"sum_hessian":[5.6895E4,5.786E3,5.1109E4,2.883E3,2.903E3,5.0156E4,9.53E2],"tree_param":{"num_deleted":"0","num_feature":"200","num_nodes":"7","size_leaf_vector":"1"}},{"base_weights":[3.2165455E1,-3.132382E3,2.2169966E3,-3.3187654E3,-1.0325245E3,6.393591E2,4.481862E3],"categories":[],"categories_nodes":[],"categories_segments":[],"categories_sizes":[],"default_left":[0,0,0,0,0,0,0],"id":6,"left_children":[1,3,5,-1,-1,-1,-1],"loss_changes":[3.9348283E11,8.445205E10,2.0984547E11,0E0,0E0,0E0,0E0],"parents":[2147483647,0,0,1,1,2,2],"right_children":[2,4,6,-1,-1,-1,-1],"split_conditions":[5.94E3,9.973E3,1.55515E5,-3.3187654E3,-1.0325245E3,6.393591E2,4.481862E3],"split_indices":[2,5,5,0,0,0,0],"split_type":[0,0,0,0,0,0,0],"sum_hessian":[5.6909E4,2.3243E4,3.3666E4,4.204E3,1.9039E4,3.0301E4,3.365E3],"tree_param":{"num_deleted":"0","num_feature":"200","num_nodes":"7","size_leaf_vector":"1"}},{"base_weights":[-9.562667E0,-8.0524896E2,3.611151E3,-2.778245E2,-5.52775E3,1.3524784E3,3.6701685E3],"categories":[],"categories_nodes":[],"categories_segments":[],"categories_sizes":[],"default_left":[0,0,0,0,0,0,0],"id":7,"left_children":[1,3,5,-1,-1,-1,-1],"loss_changes":[1.6457441E11,1.0641914E11,3.0414946E10,0E0,0E0,0E0,0E0],"parents":[2147483647,0,0,1,1,2,2],"right_children":[2,4,6,-1,-1,-1,-1],"split_conditions":[1.3498E5,1E0,2.894E3,-2.778245E2,-5.52775E3,1.3524784E3,3.6701685E3],"split_indices":[5,68,10,0,0,0,0],"split_type":[0,0,0,0,0,0,0],"sum_hessian":[5.7123E4,4.6832E4,1.0291E4,4.5995E4,8.37E2,8.895E3,1.396E3],"tree_param":{"num_deleted":"0","num_feature":"200","num_nodes":"7","size_leaf_vector":"1"}},{"base_weights":[7.772333E-1,-2.5034272E3,5.7722205E2,-1.294606E3,6.9742075E3,3.6597314E2,-5.0253545E3],"categories":[],"categories_nodes":[],"categories_segments":[],"categories_sizes":[],"default_left":[0,0,0,0,0,0,0],"id":8,"left_children":[1,3,5,-1,-1,-1,-1],"loss_changes":[8.218337E10,5.6447644E10,1.14306925E11,0E0,0E0,0E0,0E0],"parents":[2147483647,0,0,1,1,2,2],"right_children":[2,4,6,-1,-1,-1,-1],"split_conditions":[2.8079E4,1E0,1E0,-1.294606E3,6.9742075E3,3.6597314E2,-5.0253545E3],"split_indices":[5,68,68,0,0,0,0],"split_type":[0,0,0,0,0,0,0],"sum_hessian":[5.693E4,1.0652E4,4.6278E4,1.0474E4,1.78E2,4.5425E4,8.53E2],"tree_param":{"num_deleted":"0","num_feature":"200","num_nodes":"7","size_leaf_vector":"1"}},{"base_weights":[-2.9286573E1,-4.236518E2,1.6663032E3,-3.979107E1,-2.068272E3,5.3020905E2,1.7704259E3],"categories":[],"categories_nodes":[],"categories_segments":[],"categories_sizes":[],"default_left":[0,0,0,0,0,0,0],"id":9,"left_children":[1,3,5,-1,-1,-1,-1],"loss_changes":[3.8094836E10,6.3266783E10,1.2067555E10,0E0,0E0,0E0,0E0],"parents":[2147483647,0,0,1,1,2,2],"right_children":[2,4,6,-1,-1,-1,-1],"split_conditions":[1.1934E4,1.23094E5,1.4237E4,-3.979107E1,-2.068272E3,5.3020905E2,1.7704259E3],"split_indices":[2,5,2,0,0,0,0],"split_type":[0,0,0,0,0,0,0],"sum_hessian":[5.6968E4,4.6219E4,1.0749E4,4.267E4,3.549E3,8.678E3,2.071E3],"tree_param":{"num_deleted":"0","num_feature":"200","num_nodes":"7","size_leaf_vector":"1"}},{"base_weights":[-4.6487885E0,-8.905719E2,6.2933997E2,-2.011017E3,-2.9785498E2,2.4247576E3,2.2498806E1],"categories":[],"categories_nodes":[],"categories_segments":[],"categories_sizes":[],"default_left":[0,0,0,0,0,0,0],"id":10,"left_children":[1,3,5,-1,-1,-1,-1],"loss_changes":[3.1865516E10,2.012308E10,8.875542E10,0E0,0E0,0E0,0E0],"parents":[2147483647,0,0,1,1,2,2],"right_children":[2,4,6,-1,-1,-1,-1],"split_conditions":[6.045E3,3.69E3,7.119E3,-2.011017E3,-2.9785498E2,2.4247576E3,2.2498806E1],"split_indices":[2,5,2,0,0,0,0],"split_type":[0,0,0,0,0,0,0],"sum_hessian":[5.6732E4,2.3664E4,3.3068E4,1.564E3,2.21E4,3.689E3,2.9379E4],"tree_param":{"num_deleted":"0","num_feature":"200","num_nodes":"7","size_leaf_vector":"1"}},{"base_weights":[1.7879164E0,-3.725938E2,8.5354987E2,-1.2726047E2,-2.6317168E3,2.059191E3,3.0546894E1],"categories":[],"categories_nodes":[],"categories_segments":[],"categories_sizes":[],"default_left":[0,0,0,0,0,0,0],"id":11,"left_children":[1,3,5,-1,-1,-1,-1],"loss_changes":[1.816077E10,2.0432691E10,4.938126E10,0E0,0E0,0E0,0E0],"parents":[2147483647,0,0,1,1,2,2],"right_children":[2,4,6,-1,-1,-1,-1],"split_conditions":[1.14056E5,1E0,1.23094E5,-1.2726047E2,-2.6317168E3,2.059191E3,3.0546894E1],"split_indices":[5,68,5,0,0,0,0],"split_type":[0,0,0,0,0,0,0],"sum_hessian":[5.6949E4,3.9561E4,1.7388E4,3.8855E4,7.06E2,3.115E3,1.4273E4],"tree_param":{"num_deleted":"0","num_feature":"200","num_nodes":"7","size_leaf_vector":"1"}},{"base_weights":[1.9052565E1,-1.9254474E2,8.7675586E2,1.019153E1,-1.5651768E3,3.3062216E2,1.3193607E3],"categories":[],"categories_nodes":[],"categories_segments":[],"categories_sizes":[],"default_left":[0,0,0,0,0,0,0],"id":12,"left_children":[1,3,5,-1,-1,-1,-1],"loss_changes":[1.0324277E10,3.131459E10,3.57999E9,0E0,0E0,0E0,0E0],"parents":[2147483647,0,0,1,1,2,2],"right_children":[2,4,6,-1,-1,-1,-1],"split_conditions":[2.353E3,1.23094E5,1.4572E4,1.019153E1,-1.5651768E3,3.3062216E2,1.3193607E3],"split_indices":[10,5,2,0,0,0,0],"split_type":[0,0,0,0,0,0,0],"sum_hessian":[5.6885E4,4.5629E4,1.1256E4,4.276E4,2.869E3,1.0413E4,8.43E2],"tree_param":{"num_deleted":"0","num_feature":"200","num_nodes":"7","size_leaf_vector":"1"}},{"base_weights":[1.537359E0,-1.9547933E3,8.016089E1,-1.0077761E3,6.5235522E3,4.198799E2,-6.8825676E1],"categories":[],"categories_nodes":[],"categories_segments":[],"categories_sizes":[],"default_left":[0,0,0,0,0,0,0],"id":13,"left_children":[1,3,5,-1,-1,-1,-1],"loss_changes":[8.790143E9,8.1297316E9,1.0444497E10,0E0,0E0,0E0,0E0],"parents":[2147483647,0,0,1,1,2,2],"right_children":[2,4,6,-1,-1,-1,-1],"split_conditions":[7.8E1,1E0,3.8882E4,-1.0077761E3,6.5235522E3,4.198799E2,-6.8825676E1],"split_indices":[10,68,5,0,0,0,0],"split_type":[0,0,0,0,0,0,0],"sum_hessian":[5.7146E4,2.207E3,5.4939E4,2.177E3,3E1,1.1897E4,4.3042E4],"tree_param":{"num_deleted":"0","num_feature":"200","num_nodes":"7","size_leaf_vector":"1"}},{"base_weights":[-1.3583841E1,-4.6194077E2,3.310407E2,1.00448166E2,-6.2515533E2,1.9941047E3,-2.6912754E1],"categories":[],"categories_nodes":[],"categories_segments":[],"categories_sizes":[],"default_left":[0,0,0,0,0,0,0],"id":14,"left_children":[1,3,5,-1,-1,-1,-1],"loss_changes":[8.7939E9,1.4994506E10,4.9965515E10,0E0,0E0,0E0,0E0],"parents":[2147483647,0,0,1,1,2,2],"right_children":[2,4,6,-1,-1,-1,-1],"split_conditions":[6.265E3,3.8882E4,7.119E3,1.00448166E2,-6.2515533E2,1.9941047E3,-2.6912754E1],"split_indices":[2,5,2,0,0,0,0],"split_type":[0,0,0,0,0,0,0],"sum_hessian":[5.6911E4,2.4733E4,3.2178E4,1.404E4,1.0693E4,2.861E3,2.9317E4],"tree_param":{"num_deleted":"0","num_feature":"200","num_nodes":"7","size_leaf_vector":"1"}},{"base_weights":[-1.2996255E1,-8.6735364E2,1.9439008E2,-4.8334335E2,4.4472217E3,1.8874706E3,-3.1168037E1],"categories":[],"categories_nodes":[],"categories_segments":[],"categories_sizes":[],"default_left":[0,0,0,0,0,0,0],"id":15,"left_children":[1,3,5,-1,-1,-1,-1],"loss_changes":[1.0083422E10,2.0968399E10,4.670097E10,0E0,0E0,0E0,0E0],"parents":[2147483647,0,0,1,1,2,2],"right_children":[2,4,6,-1,-1,-1,-1],"split_conditions":[5.1E2,1E0,3.8882E4,-4.8334335E2,4.4472217E3,1.8874706E3,-3.1168037E1],"split_indices":[10,68,5,0,0,0,0],"split_type":[0,0,0,0,0,0,0],"sum_hessian":[5.6908E4,1.1115E4,4.5793E4,1.0929E4,1.86E2,2.885E3,4.2908E4],"tree_param":{"num_deleted":"0","num_feature":"200","num_nodes":"7","size_leaf_vector":"1"}},{"base_weights":[9.226024E-1,-2.5568526E2,6.1826544E2,-8.7023346E1,-1.7841029E3,1.5965806E3,6.275876E1],"categories":[],"categories_nodes":[],"categories_segments":[],"categories_sizes":[],"default_left":[0,0,0,0,0,0,0],"id":16,"left_children":[1,3,5,-1,-1,-1,-1],"loss_changes":[8.993379E9,9.723158E9,2.2832345E10,0E0,0E0,0E0,0E0],"parents":[2147483647,0,0,1,1,2,2],"right_children":[2,4,6,-1,-1,-1,-1],"split_conditions":[1.15579E5,1E0,1.23094E5,-8.7023346E1,-1.7841029E3,1.5965806E3,6.275876E1],"split_indices":[5,68,5,0,0,0,0],"split_type":[0,0,0,0,0,0,0],"sum_hessian":[5.6769E4,4.0101E4,1.6668E4,3.9369E4,7.32E2,2.419E3,1.4249E4],"tree_param":{"num_deleted":"0","num_feature":"200","num_nodes":"7","size_leaf_vector":"1"}},{"base_weights":[1.4858422E0,-1.5270573E2,5.8069965E2,-1.1594915E1,-1.2266506E3,6.921678E2,7.802315E1],"categories":[],"categories_nodes":[],"categories_segments":[],"categories_sizes":[],"default_left":[0,0,0,0,0,0,0],"id":17,"left_children":[1,3,5,-1,-1,-1,-1],"loss_changes":[5.082715E9,1.4360859E10,4.524439E9,0E0,0E0,0E0,0E0],"parents":[2147483647,0,0,1,1,2,2],"right_children":[2,4,6,-1,-1,-1,-1],"split_conditions":[1.1536E4,1.23094E5,1.2611E4,-1.1594915E1,-1.2266506E3,6.921678E2,7.802315E1],"split_indices":[2,5,2,0,0,0,0],"split_type":[0,0,0,0,0,0,0],"sum_hessian":[5.6909E4,4.4945E4,1.1964E4,4.2767E4,2.178E3,3.702E3,8.262E3],"tree_param":{"num_deleted":"0","num_feature":"200","num_nodes":"7","size_leaf_vector":"1"}},{"base_weights":[9.236417E0,-4.331606E2,1.9480052E2,8.945124E1,-1.7032833E3,1.3618004E2,-2.486468E3],"categories":[],"categories_nodes":[],"categories_segments":[],"categories_sizes":[],"default_left":[0,0,0,0,0,0,0],"id":18,"left_children":[1,3,5,-1,-1,-1,-1],"loss_changes":[4.678565E9,3.4378375E10,2.244396E10,0E0,0E0,0E0,0E0],"parents":[2147483647,0,0,1,1,2,2],"right_children":[2,4,6,-1,-1,-1,-1],"split_conditions":[4.6698E4,3.8882E4,1E0,8.945124E1,-1.7032833E3,1.3618004E2,-2.486468E3],"split_indices":[5,5,68,0,0,0,0],"split_type":[0,0,0,0,0,0,0],"sum_hessian":[5.6989E4,1.684E4,4.0149E4,1.4122E4,2.718E3,3.9442E4,7.07E2],"tree_param":{"num_deleted":"0","num_feature":"200","num_nodes":"7","size_leaf_vector":"1"}},{"base_weights":[2.8003109E0,1.5196113E1,-4.4096577E3,-2.0479431E2,6.2023567E1,-1.0277362E3,-2.2149387E3],"categories":[],"categories_nodes":[],"categories_segments":[],"categories_sizes":[],"default_left":[0,0,0,0,0,0,0],"id":19,"left_children":[1,3,5,-1,-1,-1,-1],"loss_changes":[3.1239173E9,3.1132695E9,1.2483558E8,0E0,0E0,0E0,0E0],"parents":[2147483647,0,0,1,1,2,2],"right_children":[2,4,6,-1,-1,-1,-1],"split_conditions":[1.5E2,3.0925E4,1.52E2,-2.0479431E2,6.2023567E1,-1.0277362E3,-2.2149387E3],"split_indices":[1,5,1,0,0,0,0],"split_type":[0,0,0,0,0,0,0],"sum_hessian":[5.7112E4,5.6953E4,1.59E2,1.1741E4,4.5212E4,2.5E1,1.34E2],"tree_param":{"num_deleted":"0","num_feature":"200","num_nodes":"7","size_leaf_vector":"1"}},{"base_weights":[-1.4957792E0,2.7947824E2,-2.656859E2,2.081162E1,1.9415392E3,-2.139724E3,-1.2116385E1],"categories":[],"categories_nodes":[],"categories_segments":[],"categories_sizes":[],"default_left":[0,0,0,0,0,0,0],"id":20,"left_children":[1,3,5,-1,-1,-1,-1],"loss_changes":[4.241163E9,2.5479072E10,3.0804586E10,0E0,0E0,0E0,0E0],"parents":[2147483647,0,0,1,1,2,2],"right_children":[2,4,6,-1,-1,-1,-1],"split_conditions":[7.119E3,6.659E3,7.596E3,2.081162E1,1.9415392E3,-2.139724E3,-1.2116385E1],"split_indices":[2,2,2,0,0,0,0],"split_type":[0,0,0,0,0,0,0],"sum_hessian":[5.7133E4,2.7687E4,2.9446E4,2.6128E4,1.559E3,1.529E3,2.7917E4],"tree_param":{"num_deleted":"0","num_feature":"200","num_nodes":"7","size_leaf_vector":"1"}},{"base_weights":[-6.4931E0,-5.4076595E1,1.02399493E3,7.986213E1,-1.7934627E2,3.7052386E2,9.0815784E2],"categories":[],"categories_nodes":[],"categories_segments":[],"categories_sizes":[],"default_left":[0,0,0,0,0,0,0],"id":21,"left_children":[1,3,5,-1,-1,-1,-1],"loss_changes":[2.7673508E9,4.0959022E9,5.1863168E8,0E0,0E0,0E0,0E0],"parents":[2147483647,0,0,1,1,2,2],"right_children":[2,4,6,-1,-1,-1,-1],"split_conditions":[1.57838E5,8.454E3,1.4726E4,7.986213E1,-1.7934627E2,3.7052386E2,9.0815784E2],"split_indices":[5,2,2,0,0,0,0],"split_type":[0,0,0,0,0,0,0],"sum_hessian":[5.6435E4,5.3945E4,2.49E3,3.2129E4,2.1816E4,2.018E3,4.72E2],"tree_param":{"num_deleted":"0","num_feature":"200","num_nodes":"7","size_leaf_vector":"1"}},{"base_weights":[8.499174E0,-1.0844342E3,5.251203E1,-7.529388E2,-1.7724762E1,-2.8270763E1,1.5238062E2],"categories":[],"categories_nodes":[],"categories_segments":[],"categories_sizes":[],"default_left":[0,0,0,0,0,0,0],"id":22,"left_children":[1,3,5,-1,-1,-1,-1],"loss_changes":[2.7449175E9,1.2625649E9,1.7317322E9,0E0,0E0,0E0,0E0],"parents":[2147483647,0,0,1,1,2,2],"right_children":[2,4,6,-1,-1,-1,-1],"split_conditions":[1.1E1,2E1,1.17327E5,-7.529388E2,-1.7724762E1,-2.8270763E1,1.5238062E2],"split_indices":[48,56,5,0,0,0,0],"split_type":[0,0,0,0,0,0,0],"sum_hessian":[5.7061E4,2.208E3,5.4853E4,1.45E3,7.58E2,3.8908E4,1.5945E4],"tree_param":{"num_deleted":"0","num_feature":"200","num_nodes":"7","size_leaf_vector":"1"}},{"base_weights":[-1.2681271E0,1.482242E2,-2.0237895E2,-1.3910971E1,1.9436254E3,-1.7905692E3,3.953634E1],"categories":[],"categories_nodes":[],"categories_segments":[],"categories_sizes":[],"default_left":[0,0,0,0,0,0,0],"id":23,"left_children":[1,3,5,-1,-1,-1,-1],"loss_changes":[1.7157221E9,2.3713905E10,2.5762513E10,0E0,0E0,0E0,0E0],"parents":[2147483647,0,0,1,1,2,2],"right_children":[2,4,6,-1,-1,-1,-1],"split_conditions":[8.454E3,8.088E3,9.9837E4,-1.3910971E1,1.9436254E3,-1.7905692E3,3.953634E1],"split_indices":[2,2,5,0,0,0,0],"split_type":[0,0,0,0,0,0,0],"sum_hessian":[5.7066E4,3.2734E4,2.4332E4,3.1358E4,1.376E3,1.767E3,2.2565E4],"tree_param":{"num_deleted":"0","num_feature":"200","num_nodes":"7","size_leaf_vector":"1"}},{"base_weights":[-1.770384E1,2.0416179E2,-1.2884102E2,3.243938E1,3.4852725E3,-1.8508141E3,-4.049409E0],"categories":[],"categories_nodes":[],"categories_segments":[],"categories_sizes":[],"default_left":[0,0,0,0,0,0,0],"id":24,"left_children":[1,3,5,-1,-1,-1,-1],"loss_changes":[1.4030884E9,1.8676572E10,1.7662118E10,0E0,0E0,0E0,0E0],"parents":[2147483647,0,0,1,1,2,2],"right_children":[2,4,6,-1,-1,-1,-1],"split_conditions":[4.657E3,1E0,5.002E3,3.243938E1,3.4852725E3,-1.8508141E3,-4.049409E0],"split_indices":[2,68,2,0,0,0,0],"split_type":[0,0,0,0,0,0,0],"sum_hessian":[5.6901E4,1.899E4,3.7911E4,1.8651E4,3.39E2,1.137E3,3.6774E4],"tree_param":{"num_deleted":"0","num_feature":"200","num_nodes":"7","size_leaf_vector":"1"}},{"base_weights":[2.0094955E1,-3.2442252E2,1.0946865E2,5.695236E1,-6.716283E2,1.3310092E3,-1.4113459E1],"categories":[],"categories_nodes":[],"categories_segments":[],"categories_sizes":[],"default_left":[0,0,0,0,0,0,0],"id":25,"left_children":[1,3,5,-1,-1,-1,-1],"loss_changes":[1.7426716E9,5.9006996E9,1.7454131E10,0E0,0E0,0E0,0E0],"parents":[2147483647,0,0,1,1,2,2],"right_children":[2,4,6,-1,-1,-1,-1],"split_conditions":[3.1539E4,3.73E2,3.8882E4,5.695236E1,-6.716283E2,1.3310092E3,-1.4113459E1],"split_indices":[5,10,5,0,0,0,0],"split_type":[0,0,0,0,0,0,0],"sum_hessian":[5.6595E4,1.1657E4,4.4938E4,8.35E3,3.307E3,2.159E3,4.2779E4],"tree_param":{"num_deleted":"0","num_feature":"200","num_nodes":"7","size_leaf_vector":"1"}},{"base_weights":[1.3216466E1,-2.9676437E2,1.3538657E2,3.9917706E1,-1.2703767E3,1.0474054E3,-6.8019857E0],"categories":[],"categories_nodes":[],"categories_segments":[],"categories_sizes":[],"default_left":[0,0,0,0,0,0,0],"id":26,"left_children":[1,3,5,-1,-1,-1,-1],"loss_changes":[2.1666432E9,1.5216181E10,1.3142361E10,0E0,0E0,0E0,0E0],"parents":[2147483647,0,0,1,1,2,2],"right_children":[2,4,6,-1,-1,-1,-1],"split_conditions":[8.01E2,3.8882E4,4.657E3,3.9917706E1,-1.2703767E3,1.0474054E3,-6.8019857E0],"split_indices":[10,5,2,0,0,0,0],"split_type":[0,0,0,0,0,0,0],"sum_hessian":[5.721E4,1.6173E4,4.1037E4,1.399E4,2.183E3,2.697E3,3.834E4],"tree_param":{"num_deleted":"0","num_feature":"200","num_nodes":"7","size_leaf_vector":"1"}},{"base_weights":[-7.599626E0,-5.223905E2,6.124426E1,-2.7391675E2,1.640947E3,9.193434E2,-4.419865E0],"categories":[],"categories_nodes":[],"categories_segments":[],"categories_sizes":[],"default_left":[0,0,0,0,0,0,0],"id":27,"left_children":[1,3,5,-1,-1,-1,-1],"loss_changes":[2.0184224E9,1.9441439E9,6.866202E9,0E0,0E0,0E0,0E0],"parents":[2147483647,0,0,1,1,2,2],"right_children":[2,4,6,-1,-1,-1,-1],"split_conditions":[1.6734E4,1E0,3.73E2,-2.7391675E2,1.640947E3,9.193434E2,-4.419865E0],"split_indices":[5,68,10,0,0,0,0],"split_type":[0,0,0,0,0,0,0],"sum_hessian":[5.6951E4,6.717E3,5.0234E4,6.603E3,1.14E2,1.777E3,4.8457E4],"tree_param":{"num_deleted":"0","num_feature":"200","num_nodes":"7","size_leaf_vector":"1"}},{"base_weights":[-8.9450705E-1,-3.132165E2,6.621558E1,6.113444E0,-9.541948E2,4.377944E2,-7.654825E0],"categories":[],"categories_nodes":[],"categories_segments":[],"categories_sizes":[],"default_left":[0,0,0,0,0,0,0],"id":28,"left_children":[1,3,5,-1,-1,-1,-1],"loss_changes":[1.1952413E9,5.773902E9,3.4279483E9,0E0,0E0,0E0,0E0],"parents":[2147483647,0,0,1,1,2,2],"right_children":[2,4,6,-1,-1,-1,-1],"split_conditions":[2.338E3,3.73E2,3.8882E4,6.113444E0,-9.541948E2,4.377944E2,-7.654825E0],"split_indices":[2,10,5,0,0,0,0],"split_type":[0,0,0,0,0,0,0],"sum_hessian":[5.7023E4,1.0085E4,4.6938E4,8.503E3,1.582E3,4.027E3,4.2911E4],"tree_param":{"num_deleted":"0","num_feature":"200","num_nodes":"7","size_leaf_vector":"1"}},{"base_weights":[-6.840928E0,3.8653667E1,-3.6625497E2,5.878949E0,1.5112065E3,-2.1249881E2,2.5404707E3],"categories":[],"categories_nodes":[],"categories_segments":[],"categories_sizes":[],"default_left":[0,0,0,0,0,0,0],"id":29,"left_children":[1,3,5,-1,-1,-1,-1],"loss_changes":[9.3153683E8,4.2397E9,3.5343928E9,0E0,0E0,0E0,0E0],"parents":[2147483647,0,0,1,1,2,2],"right_children":[2,4,6,-1,-1,-1,-1],"split_conditions":[5.83E2,5.59E2,1E0,5.878949E0,1.5112065E3,-2.1249881E2,2.5404707E3],"split_indices":[11,11,68,0,0,0,0],"split_type":[0,0,0,0,0,0,0],"sum_hessian":[5.6968E4,5.0568E4,6.4E3,5.0167E4,4.01E2,6.3E3,1E2],"tree_param":{"num_deleted":"0","num_feature":"200","num_nodes":"7","size_leaf_vector":"1"}},{"base_weights":[6.612537E0,-1.962289E2,1.0533796E2,-1.2314824E2,1.6981255E3,1.0260957E3,4.340774E0],"categories":[],"categories_nodes":[],"categories_segments":[],"categories_sizes":[],"default_left":[0,0,0,0,0,0,0],"id":30,"left_children":[1,3,5,-1,-1,-1,-1],"loss_changes":[1.1394177E9,5.0894505E9,7.773323E9,0E0,0E0,0E0,0E0],"parents":[2147483647,0,0,1,1,2,2],"right_children":[2,4,6,-1,-1,-1,-1],"split_conditions":[8.42E2,1E0,4.657E3,-1.2314824E2,1.6981255E3,1.0260957E3,4.340774E0],"split_indices":[15,68,2,0,0,0,0],"split_type":[0,0,0,0,0,0,0],"sum_hessian":[5.6896E4,1.8626E4,3.827E4,1.8294E4,3.32E2,1.658E3,3.6612E4],"tree_param":{"num_deleted":"0","num_feature":"200","num_nodes":"7","size_leaf_vector":"1"}},{"base_weights":[-8.517046E0,1.9009756E1,-1.5463904E3,7.840432E1,-8.313945E1,-3.1720059E3,2.5880615E3],"categories":[],"categories_nodes":[],"categories_segments":[],"categories_sizes":[],"default_left":[0,0,0,0,0,0,0],"id":31,"left_children":[1,3,5,-1,-1,-1,-1],"loss_changes":[2.417017E9,1.6842083E9,3.82697E10,0E0,0E0,0E0,0E0],"parents":[2147483647,0,0,1,1,2,2],"right_children":[2,4,6,-1,-1,-1,-1],"split_conditions":[1E0,8.454E3,8.454E3,7.840432E1,-8.313945E1,-3.1720059E3,2.5880615E3],"split_indices":[68,2,2,0,0,0,0],"split_type":[0,0,0,0,0,0,0],"sum_hessian":[5.7094E4,5.6091E4,1.003E3,3.1915E4,2.4176E4,5.75E2,4.28E2],"tree_param":{"num_deleted":"0","num_feature":"200","num_nodes":"7","size_leaf_vector":"1"}},{"base_weights":[1.1465884E1,-8.1058975E1,2.4579526E2,1.928173E1,-5.902449E2,1.2425679E3,-2.587362E1],"categories":[],"categories_nodes":[],"categories_segments":[],"categories_sizes":[],"default_left":[0,0,0,0,0,0,0],"id":32,"left_children":[1,3,5,-1,-1,-1,-1],"loss_changes":[1.2339674E9,6.000912E9,1.1892838E10,0E0,0E0,0E0,0E0],"parents":[2147483647,0,0,1,1,2,2],"right_children":[2,4,6,-1,-1,-1,-1],"split_conditions":[1.17951E5,9.611E3,1.23094E5,1.928173E1,-5.902449E2,1.2425679E3,-2.587362E1],"split_indices":[5,2,5,0,0,0,0],"split_type":[0,0,0,0,0,0,0],"sum_hessian":[5.6912E4,4.0802E4,1.611E4,3.7007E4,3.795E3,1.769E3,1.4341E4],"tree_param":{"num_deleted":"0","num_feature":"200","num_nodes":"7","size_leaf_vector":"1"}},{"base_weights":[-9.877459E0,-1.3612231E2,1.9249559E2,-3.521934E1,-1.5904636E3,1.1450968E3,-1.943748E1],"categories":[],"categories_nodes":[],"categories_segments":[],"categories_sizes":[],"default_left":[0,0,0,0,0,0,0],"id":33,"left_children":[1,3,5,-1,-1,-1,-1],"loss_changes":[1.4550931E9,6.9440717E9,1.1743205E10,0E0,0E0,0E0,0E0],"parents":[2147483647,0,0,1,1,2,2],"right_children":[2,4,6,-1,-1,-1,-1],"split_conditions":[1.02185E5,1E0,9.611E3,-3.521934E1,-1.5904636E3,1.1450968E3,-1.943748E1],"split_indices":[5,68,2,0,0,0,0],"split_type":[0,0,0,0,0,0,0],"sum_hessian":[5.6952E4,3.5073E4,2.1879E4,3.4451E4,6.22E2,2.034E3,1.9845E4],"tree_param":{"num_deleted":"0","num_feature":"200","num_nodes":"7","size_leaf_vector":"1"}},{"base_weights":[2.9661973E0,-5.7367424E1,2.5045724E2,4.0742693E0,-8.0235754E2,3.529965E2,-1.0387406E1],"categories":[],"categories_nodes":[],"categories_segments":[],"categories_sizes":[],"default_left":[0,0,0,0,0,0,0],"id":34,"left_children":[1,3,5,-1,-1,-1,-1],"loss_changes":[8.4884064E8,5.084157E9,1.5636297E9,0E0,0E0,0E0,0E0],"parents":[2147483647,0,0,1,1,2,2],"right_children":[2,4,6,-1,-1,-1,-1],"split_conditions":[2.181E3,2.105E3,1.2611E4,4.0742693E0,-8.0235754E2,3.529965E2,-1.0387406E1],"split_indices":[15,15,2,0,0,0,0],"split_type":[0,0,0,0,0,0,0],"sum_hessian":[5.6845E4,4.5704E4,1.1141E4,4.3973E4,1.731E3,3.863E3,7.278E3],"tree_param":{"num_deleted":"0","num_feature":"200","num_nodes":"7","size_leaf_vector":"1"}},{"base_weights":[3.0866587E0,-3.9284897E1,3.709208E2,1.049541E-1,-7.074172E2,8.36071E2,-4.818078E0],"categories":[],"categories_nodes":[],"categories_segments":[],"categories_sizes":[],"default_left":[0,0,0,0,0,0,0],"id":35,"left_children":[1,3,5,-1,-1,-1,-1],"loss_changes":[8.878231E8,3.0132475E9,3.2312425E9,0E0,0E0,0E0,0E0],"parents":[2147483647,0,0,1,1,2,2],"right_children":[2,4,6,-1,-1,-1,-1],"split_conditions":[2.471E3,2.408E3,1.335E4,1.049541E-1,-7.074172E2,8.36071E2,-4.818078E0],"split_indices":[15,15,2,0,0,0,0],"split_type":[0,0,0,0,0,0,0],"sum_hessian":[5.6962E4,5.1079E4,5.883E3,4.9763E4,1.316E3,1.231E3,4.652E3],"tree_param":{"num_deleted":"0","num_feature":"200","num_nodes":"7","size_leaf_vector":"1"}},{"base_weights":[-1.612702E0,-3.5839306E1,4.251882E2,1.7285018E0,-8.68492E2,5.1000034E2,1.1222492E2],"categories":[],"categories_nodes":[],"categories_segments":[],"categories_sizes":[],"default_left":[0,0,0,0,0,0,0],"id":36,"left_children":[1,3,5,-1,-1,-1,-1],"loss_changes":[8.2878234E8,3.836454E9,5.2091578E8,0E0,0E0,0E0,0E0],"parents":[2147483647,0,0,1,1,2,2],"right_children":[2,4,6,-1,-1,-1,-1],"split_conditions":[1.52854E5,1.335E4,1.55515E5,1.7285018E0,-8.68492E2,5.1000034E2,1.1222492E2],"split_indices":[5,2,5,0,0,0,0],"split_type":[0,0,0,0,0,0,0],"sum_hessian":[5.6733E4,5.2522E4,4.211E3,5.142E4,1.102E3,8.89E2,3.322E3],"tree_param":{"num_deleted":"0","num_feature":"200","num_nodes":"7","size_leaf_vector":"1"}},{"base_weights":[7.6559585E-1,-1.4185133E2,9.2492256E1,-1.0737377E2,2.3313354E3,7.12484E1,-1.5619935E3],"categories":[],"categories_nodes":[],"categories_segments":[],"categories_sizes":[],"default_left":[0,0,0,0,0,0,0],"id":37,"left_children":[1,3,5,-1,-1,-1,-1],"loss_changes":[7.452295E8,1.050285E10,7.451236E9,0E0,0E0,0E0,0E0],"parents":[2147483647,0,0,1,1,2,2],"right_children":[2,4,6,-1,-1,-1,-1],"split_conditions":[1.02E3,1E0,1E0,-1.0737377E2,2.3313354E3,7.12484E1,-1.5619935E3],"split_indices":[15,68,68,0,0,0,0],"split_type":[0,0,0,0,0,0,0],"sum_hessian":[5.6965E4,2.2297E4,3.4668E4,2.1915E4,3.82E2,3.4063E4,6.05E2],"tree_param":{"num_deleted":"0","num_feature":"200","num_nodes":"7","size_leaf_vector":"1"}},{"base_weights":[-9.835111E0,1.3607307E2,-1.6550793E2,1.7234732E1,1.1685475E3,-1.0821421E3,-1.9643317E0],"categories":[],"categories_nodes":[],"categories_segments":[],"categories_sizes":[],"default_left":[0,0,0,0,0,0,0],"id":38,"left_children":[1,3,5,-1,-1,-1,-1],"loss_changes":[1.2935588E9,6.9519447E9,9.678651E9,0E0,0E0,0E0,0E0],"parents":[2147483647,0,0,1,1,2,2],"right_children":[2,4,6,-1,-1,-1,-1],"split_conditions":[7.1217E4,6.7946E4,1.548E3,1.7234732E1,1.1685475E3,-1.0821421E3,-1.9643317E0],"split_indices":[6,6,10,0,0,0,0],"split_type":[0,0,0,0,0,0,0],"sum_hessian":[5.6948E4,2.9396E4,2.7552E4,2.8233E4,1.163E3,1.898E3,2.5654E4],"tree_param":{"num_deleted":"0","num_feature":"200","num_nodes":"7","size_leaf_vector":"1"}},{"base_weights":[8.921633E0,-6.309861E0,7.8660913E2,1.5576464E1,-1.258912E2,3.8182903E1,8.457582E2],"categories":[],"categories_nodes":[],"categories_segments":[],"categories_sizes":[],"default_left":[0,0,0,0,0,0,0],"id":39,"left_children":[1,3,5,-1,-1,-1,-1],"loss_changes":[6.75841E8,5.969709E8,8.062732E8,0E0,0E0,0E0,0E0],"parents":[2147483647,0,0,1,1,2,2],"right_children":[2,4,6,-1,-1,-1,-1],"split_conditions":[5E0,5.07E2,1E0,1.5576464E1,-1.258912E2,3.8182903E1,8.457582E2],"split_indices":[25,11,192,0,0,0,0],"split_type":[0,0,0,0,0,0,0],"sum_hessian":[5.7054E4,5.5959E4,1.095E3,4.8646E4,7.313E3,6.55E2,4.4E2],"tree_param":{"num_deleted":"0","num_feature":"200","num_nodes":"7","size_leaf_vector":"1"}},{"base_weights":[2.2609046E0,-6.5860435E1,1.6804651E2,1.7290819E0,-8.467127E2,4.099728E2,-1.5292894E1],"categories":[],"categories_nodes":[],"categories_segments":[],"categories_sizes":[],"default_left":[0,0,0,0,0,0,0],"id":40,"left_children":[1,3,5,-1,-1,-1,-1],"loss_changes":[6.470178E8,4.9974067E9,2.4165693E9,0E0,0E0,0E0,0E0],"parents":[2147483647,0,0,1,1,2,2],"right_children":[2,4,6,-1,-1,-1,-1],"split_conditions":[1.916E3,1.858E3,1.23094E5,1.7290819E0,-8.467127E2,4.099728E2,-1.5292894E1],"split_indices":[15,15,5,0,0,0,0],"split_type":[0,0,0,0,0,0,0],"sum_hessian":[5.7289E4,4.0605E4,1.6684E4,3.9068E4,1.537E3,3.643E3,1.3041E4],"tree_param":{"num_deleted":"0","num_feature":"200","num_nodes":"7","size_leaf_vector":"1"}},{"base_weights":[-9.27924E0,-3.0511747E1,5.1015015E2,-2.0798547E0,-2.1188814E2,2.591408E2,-1.1710509E3],"categories":[],"categories_nodes":[],"categories_segments":[],"categories_sizes":[],"default_left":[0,0,0,0,0,0,0],"id":41,"left_children":[1,3,5,-1,-1,-1,-1],"loss_changes":[6.2626323E8,6.078523E8,3.4891277E8,0E0,0E0,0E0,0E0],"parents":[2147483647,0,0,1,1,2,2],"right_children":[2,4,6,-1,-1,-1,-1],"split_conditions":[1.58425E5,1.335E4,1E0,-2.0798547E0,-2.1188814E2,2.591408E2,-1.1710509E3],"split_indices":[5,2,68,0,0,0,0],"split_type":[0,0,0,0,0,0,0],"sum_hessian":[5.6782E4,5.4553E4,2.229E3,5.1432E4,3.121E3,2.193E3,3.6E1],"tree_param":{"num_deleted":"0","num_feature":"200","num_nodes":"7","size_leaf_vector":"1"}},{"base_weights":[8.704126E0,-1.0561868E1,5.0155084E2,1.2470851E0,-6.189448E2,2.6429904E2,-8.336123E2],"categories":[],"categories_nodes":[],"categories_segments":[],"categories_sizes":[],"default_left":[0,0,0,0,0,0,0],"id":42,"left_children":[1,3,5,-1,-1,-1,-1],"loss_changes":[5.396165E8,9.648284E8,3.5085197E8,0E0,0E0,0E0,0E0],"parents":[2147483647,0,0,1,1,2,2],"right_children":[2,4,6,-1,-1,-1,-1],"split_conditions":[7.63E2,7.41E2,1E0,1.2470851E0,-6.189448E2,2.6429904E2,-8.336123E2],"split_indices":[11,11,39,0,0,0,0],"split_type":[0,0,0,0,0,0,0],"sum_hessian":[5.6829E4,5.4692E4,2.137E3,5.4153E4,5.39E2,2.074E3,6.3E1],"tree_param":{"num_deleted":"0","num_feature":"200","num_nodes":"7","size_leaf_vector":"1"}},{"base_weights":[8.97644E0,-2.3342028E1,2.7860333E2,2.1525661E1,-1.1882528E2,7.597551E2,1.3629299E1],"categories":[],"categories_nodes":[],"categories_segments":[],"categories_sizes":[],"default_left":[0,0,0,0,0,0,0],"id":43,"left_children":[1,3,5,-1,-1,-1,-1],"loss_changes":[4.9865235E8,8.367445E8,2.085517E9,0E0,0E0,0E0,0E0],"parents":[2147483647,0,0,1,1,2,2],"right_children":[2,4,6,-1,-1,-1,-1],"split_conditions":[1.884E3,1.348E3,1.2611E4,2.1525661E1,-1.1882528E2,7.597551E2,1.3629299E1],"split_indices":[46,46,2,0,0,0,0],"split_type":[0,0,0,0,0,0,0],"sum_hessian":[5.7223E4,5.1099E4,6.124E3,3.9339E4,1.176E4,9.43E2,5.181E3],"tree_param":{"num_deleted":"0","num_feature":"200","num_nodes":"7","size_leaf_vector":"1"}},{"base_weights":[4.507178E0,-1.2665984E2,8.087633E1,1.5284938E1,-7.7038837E2,7.043977E2,1.5447262E1],"categories":[],"categories_nodes":[],"categories_segments":[],"categories_sizes":[],"default_left":[0,0,0,0,0,0,0],"id":44,"left_children":[1,3,5,-1,-1,-1,-1],"loss_changes":[5.7062515E8,5.1642465E9,2.466555E9,0E0,0E0,0E0,0E0],"parents":[2147483647,0,0,1,1,2,2],"right_children":[2,4,6,-1,-1,-1,-1],"split_conditions":[1.057E3,4.657E3,5.572E3,1.5284938E1,-7.7038837E2,7.043977E2,1.5447262E1],"split_indices":[10,2,2,0,0,0,0],"split_type":[0,0,0,0,0,0,0],"sum_hessian":[5.6963E4,2.0961E4,3.6002E4,1.8994E4,1.967E3,1.143E3,3.4859E4],"tree_param":{"num_deleted":"0","num_feature":"200","num_nodes":"7","size_leaf_vector":"1"}},{"base_weights":[-4.7977676E0,-7.917664E1,1.1849942E2,2.0214186E1,-6.363455E2,1.8807726E1,2.0232365E3],"categories":[],"categories_nodes":[],"categories_segments":[],"categories_sizes":[],"default_left":[0,0,0,0,0,0,0],"id":45,"left_children":[1,3,5,-1,-1,-1,-1],"loss_changes":[5.2118982E8,5.66263E9,7.089961E9,0E0,0E0,0E0,0E0],"parents":[2147483647,0,0,1,1,2,2],"right_children":[2,4,6,-1,-1,-1,-1],"split_conditions":[1.853E3,8.454E3,1E0,2.0214186E1,-6.363455E2,1.8807726E1,2.0232365E3],"split_indices":[10,2,68,0,0,0,0],"split_type":[0,0,0,0,0,0,0],"sum_hessian":[5.683E4,3.5447E4,2.1383E4,3.2383E4,3.064E3,2.1001E4,3.82E2],"tree_param":{"num_deleted":"0","num_feature":"200","num_nodes":"7","size_leaf_vector":"1"}},{"base_weights":[6.6444187E0,-1.3002867E2,7.941736E1,-7.4436455E1,7.589679E2,9.4984186E2,2.5230954E0],"categories":[],"categories_nodes":[],"categories_segments":[],"categories_sizes":[],"default_left":[0,0,0,0,0,0,0],"id":46,"left_children":[1,3,5,-1,-1,-1,-1],"loss_changes":[5.662718E8,1.0951425E9,5.434312E9,0E0,0E0,0E0,0E0],"parents":[2147483647,0,0,1,1,2,2],"right_children":[2,4,6,-1,-1,-1,-1],"split_conditions":[5.29E2,1E0,3.8882E4,-7.4436455E1,7.589679E2,9.4984186E2,2.5230954E0],"split_indices":[46,68,5,0,0,0,0],"split_type":[0,0,0,0,0,0,0],"sum_hessian":[5.6932E4,1.9781E4,3.7151E4,1.944E4,3.41E2,1.338E3,3.5813E4],"tree_param":{"num_deleted":"0","num_feature":"200","num_nodes":"7","size_leaf_vector":"1"}},{"base_weights":[-3.4973793E0,-1.9057178E2,6.629702E1,1.6926598E1,-1.0510984E3,5.0707962E1,-1.0728899E3],"categories":[],"categories_nodes":[],"categories_segments":[],"categories_sizes":[],"default_left":[0,0,0,0,0,0,0],"id":47,"left_children":[1,3,5,-1,-1,-1,-1],"loss_changes":[7.4358125E8,7.3352806E9,4.3161743E9,0E0,0E0,0E0,0E0],"parents":[2147483647,0,0,1,1,2,2],"right_children":[2,4,6,-1,-1,-1,-1],"split_conditions":[3.804E3,3.8882E4,1E0,1.6926598E1,-1.0510984E3,5.0707962E1,-1.0728899E3],"split_indices":[2,5,68,0,0,0,0],"split_type":[0,0,0,0,0,0,0],"sum_hessian":[5.6948E4,1.5473E4,4.1475E4,1.3954E4,1.519E3,4.0734E4,7.41E2],"tree_param":{"num_deleted":"0","num_feature":"200","num_nodes":"7","size_leaf_vector":"1"}},{"base_weights":[3.7424707E-1,-1.0116726E3,8.893063E0,-5.933152E2,-3.691271E2,3.1606924E1,-4.6471382E1],"categories":[],"categories_nodes":[],"categories_segments":[],"categories_sizes":[],"default_left":[0,0,0,0,0,0,0],"id":48,"left_children":[1,3,5,-1,-1,-1,-1],"loss_changes":[4.8854294E8,2.64112E7,3.6669837E8,0E0,0E0,0E0,0E0],"parents":[2147483647,0,0,1,1,2,2],"right_children":[2,4,6,-1,-1,-1,-1],"split_conditions":[8.9E2,2E0,9.611E3,-5.933152E2,-3.691271E2,3.1606924E1,-4.6471382E1],"split_indices":[5,73,2,0,0,0,0],"split_type":[0,0,0,0,0,0,0],"sum_hessian":[5.6664E4,4.72E2,5.6192E4,2.04E2,2.68E2,3.64E4,1.9792E4],"tree_param":{"num_deleted":"0","num_feature":"200","num_nodes":"7","size_leaf_vector":"1"}},{"base_weights":[-4.9199076E0,-8.200347E1,8.311119E1,1.5788091E1,-5.95866E2,6.921399E2,-1.9881102E1],"categories":[],"categories_nodes":[],"categories_segments":[],"categories_sizes":[],"default_left":[0,0,0,0,0,0,0],"id":49,"left_children":[1,3,5,-1,-1,-1,-1],"loss_changes":[3.8410746E8,4.2385037E9,4.721569E9,0E0,0E0,0E0,0E0],"parents":[2147483647,0,0,1,1,2,2],"right_children":[2,4,6,-1,-1,-1,-1],"split_conditions":[7.859E3,7.119E3,8.454E3,1.5788091E1,-5.95866E2,6.921399E2,-1.9881102E1],"split_indices":[2,2,2,0,0,0,0],"split_type":[0,0,0,0,0,0,0],"sum_hessian":[5.6603E4,3.0178E4,2.6425E4,2.7532E4,2.646E3,2.161E3,2.4264E4],"tree_param":{"num_deleted":"0","num_feature":"200","num_nodes":"7","size_leaf_vector":"1"}},{"base_weights":[-8.197921E0,-7.7044426E1,9.8975044E1,-1.4401378E1,-1.2073644E3,1.8165218E1,1.5241714E3],"categories":[],"categories_nodes":[],"categories_segments":[],"categories_sizes":[],"default_left":[0,0,0,0,0,0,0],"id":50,"left_children":[1,3,5,-1,-1,-1,-1],"loss_changes":[4.1796186E8,4.0136804E9,4.2306688E9,0E0,0E0,0E0,0E0],"parents":[2147483647,0,0,1,1,2,2],"right_children":[2,4,6,-1,-1,-1,-1],"split_conditions":[1.01272E5,1E0,1E0,-1.4401378E1,-1.2073644E3,1.8165218E1,1.5241714E3],"split_indices":[5,68,68,0,0,0,0],"split_type":[0,0,0,0,0,0,0],"sum_hessian":[5.6644E4,3.4489E4,2.2155E4,3.3878E4,6.11E2,2.1751E4,4.04E2],"tree_param":{"num_deleted":"0","num_feature":"200","num_nodes":"7","size_leaf_vector":"1"}},{"base_weights":[9.134468E0,5.2954723E1,-1.2316364E2,7.6880264E-1,8.9160657E2,-8.855676E2,9.27433E0],"categories":[],"categories_nodes":[],"categories_segments":[],"categories_sizes":[],"default_left":[0,0,0,0,0,0,0],"id":51,"left_children":[1,3,5,-1,-1,-1,-1],"loss_changes":[3.3069824E8,4.1279465E9,3.649517E9,0E0,0E0,0E0,0E0],"parents":[2147483647,0,0,1,1,2,2],"right_children":[2,4,6,-1,-1,-1,-1],"split_conditions":[1.23094E5,1.20316E5,2.253E3,7.6880264E-1,8.9160657E2,-8.855676E2,9.27433E0],"split_indices":[5,5,10,0,0,0,0],"split_type":[0,0,0,0,0,0,0],"sum_hessian":[5.7041E4,4.2849E4,1.4192E4,4.1711E4,1.138E3,1.048E3,1.3144E4],"tree_param":{"num_deleted":"0","num_feature":"200","num_nodes":"7","size_leaf_vector":"1"}},{"base_weights":[7.350771E0,-6.357778E1,8.645081E1,-4.75752E0,-1.377985E2,4.2884888E2,1.2346783E1],"categories":[],"categories_nodes":[],"categories_segments":[],"categories_sizes":[],"default_left":[0,0,0,0,0,0,0],"id":52,"left_children":[1,3,5,-1,-1,-1,-1],"loss_changes":[3.209626E8,3.774272E8,1.3603822E9,0E0,0E0,0E0,0E0],"parents":[2147483647,0,0,1,1,2,2],"right_children":[2,4,6,-1,-1,-1,-1],"split_conditions":[1.91E2,2.51E2,3.67E2,-4.75752E0,-1.377985E2,4.2884888E2,1.2346783E1],"split_indices":[48,38,15,0,0,0,0],"split_type":[0,0,0,0,0,0,0],"sum_hessian":[5.7206E4,3.0161E4,2.7045E4,2.4586E4,5.575E3,1.789E3,2.5256E4],"tree_param":{"num_deleted":"0","num_feature":"200","num_nodes":"7","size_leaf_vector":"1"}},{"base_weights":[-1.0014489E0,-1.588977E2,4.5400284E1,-1.1392131E2,2.2524692E3,8.9702167E2,-2.2859533E0],"categories":[],"categories_nodes":[],"categories_segments":[],"categories_sizes":[],"default_left":[0,0,0,0,0,0,0],"id":53,"left_children":[1,3,5,-1,-1,-1,-1],"loss_changes":[4.1770742E8,5.7322824E9,4.2099768E9,0E0,0E0,0E0,0E0],"parents":[2147483647,0,0,1,1,2,2],"right_children":[2,4,6,-1,-1,-1,-1],"split_conditions":[3.4638E4,1E0,3.8882E4,-1.1392131E2,2.2524692E3,8.9702167E2,-2.2859533E0],"split_indices":[5,68,5,0,0,0,0],"split_type":[0,0,0,0,0,0,0],"sum_hessian":[5.701E4,1.2948E4,4.4062E4,1.2727E4,2.21E2,1.138E3,4.2924E4],"tree_param":{"num_deleted":"0","num_feature":"200","num_nodes":"7","size_leaf_vector":"1"}},{"base_weights":[2.1550666E-1,-1.2622618E2,5.2632664E1,-8.288845E1,1.2916293E3,4.022743E1,-8.1508813E2],"categories":[],"categories_nodes":[],"categories_segments":[],"categories_sizes":[],"default_left":[0,0,0,0,0,0,0],"id":54,"left_children":[1,3,5,-1,-1,-1,-1],"loss_changes":[3.77561E8,2.602762E9,2.526171E9,0E0,0E0,0E0,0E0],"parents":[2147483647,0,0,1,1,2,2],"right_children":[2,4,6,-1,-1,-1,-1],"split_conditions":[7.33E2,1E0,1E0,-8.288845E1,1.2916293E3,4.022743E1,-8.1508813E2],"split_indices":[15,68,68,0,0,0,0],"split_type":[0,0,0,0,0,0,0],"sum_hessian":[5.6965E4,1.6694E4,4.0271E4,1.6396E4,2.98E2,3.9522E4,7.49E2],"tree_param":{"num_deleted":"0","num_feature":"200","num_nodes":"7","size_leaf_vector":"1"}},{"base_weights":[-8.200527E0,1.937168E2,-4.3734367E1,-5.4810095E0,9.2543024E2,-9.7617914E2,-6.4188733E0],"categories":[],"categories_nodes":[],"categories_segments":[],"categories_sizes":[],"default_left":[0,0,0,0,0,0,0],"id":55,"left_children":[1,3,5,-1,-1,-1,-1],"loss_changes":[4.0815974E8,3.1691666E9,2.9880415E9,0E0,0E0,0E0,0E0],"parents":[2147483647,0,0,1,1,2,2],"right_children":[2,4,6,-1,-1,-1,-1],"split_conditions":[3.73E2,1.9195E4,2.078E3,-5.4810095E0,9.2543024E2,-9.7617914E2,-6.4188733E0],"split_indices":[10,5,2,0,0,0,0],"split_type":[0,0,0,0,0,0,0],"sum_hessian":[5.6885E4,8.512E3,4.8373E4,7.645E3,8.67E2,6.86E2,4.7687E4],"tree_param":{"num_deleted":"0","num_feature":"200","num_nodes":"7","size_leaf_vector":"1"}},{"base_weights":[1.5079504E0,6.802398E1,-1.2181886E2,2.037515E0,1.0077661E3,-9.2274225E2,-1.5331316E1],"categories":[],"categories_nodes":[],"categories_segments":[],"categories_sizes":[],"default_left":[0,0,0,0,0,0,0],"id":56,"left_children":[1,3,5,-1,-1,-1,-1],"loss_changes":[4.6790294E8,4.984615E9,3.323613E9,0E0,0E0,0E0,0E0],"parents":[2147483647,0,0,1,1,2,2],"right_children":[2,4,6,-1,-1,-1,-1],"split_conditions":[9.611E3,1.04831E5,1.97E3,2.037515E0,1.0077661E3,-9.2274225E2,-1.5331316E1],"split_indices":[2,5,10,0,0,0,0],"split_type":[0,0,0,0,0,0,0],"sum_hessian":[5.7037E4,3.7053E4,1.9984E4,3.5972E4,1.081E3,9E2,1.9084E4],"tree_param":{"num_deleted":"0","num_feature":"200","num_nodes":"7","size_leaf_vector":"1"}},{"base_weights":[2.4793541E0,2.4281775E2,-1.8382988E1,1.3330644E2,-1.1715427E3,-4.3697604E2,-2.7267876E0],"categories":[],"categories_nodes":[],"categories_segments":[],"categories_sizes":[],"default_left":[0,0,0,0,0,0,0],"id":57,"left_children":[1,3,5,-1,-1,-1,-1],"loss_changes":[2.855079E8,5.814317E8,6.0670374E8,0E0,0E0,0E0,0E0],"parents":[2147483647,0,0,1,1,2,2],"right_children":[2,4,6,-1,-1,-1,-1],"split_conditions":[1.02E2,1E0,6.71E2,1.3330644E2,-1.1715427E3,-4.3697604E2,-2.7267876E0],"split_indices":[46,68,2,0,0,0,0],"split_type":[0,0,0,0,0,0,0],"sum_hessian":[5.694E4,4.547E3,5.2393E4,4.474E3,7.3E1,6.94E2,5.1699E4],"tree_param":{"num_deleted":"0","num_feature":"200","num_nodes":"7","size_leaf_vector":"1"}},{"base_weights":[1.2603624E1,7.3920425E1,-6.805176E1,1.1623196E1,1.1293208E3,-6.27736E1,1.7564241E3],"categories":[],"categories_nodes":[],"categories_segments":[],"categories_sizes":[],"default_left":[0,0,0,0,0,0,0],"id":58,"left_children":[1,3,5,-1,-1,-1,-1],"loss_changes":[2.823305E8,3.7500861E9,6.4850104E9,0E0,0E0,0E0,0E0],"parents":[2147483647,0,0,1,1,2,2],"right_children":[2,4,6,-1,-1,-1,-1],"split_conditions":[8.454E3,8.243E3,1E0,1.1623196E1,1.1293208E3,-6.27736E1,1.7564241E3],"split_indices":[2,2,68,0,0,0,0],"split_type":[0,0,0,0,0,0,0],"sum_hessian":[5.7086E4,3.2431E4,2.4655E4,3.1779E4,6.52E2,2.4231E4,4.24E2],"tree_param":{"num_deleted":"0","num_feature":"200","num_nodes":"7","size_leaf_vector":"1"}},{"base_weights":[-9.205635E0,3.8433907E0,-7.3666986E2,-6.0976807E1,3.7487793E1,1.1937148E3,-1.3335055E3],"categories":[],"categories_nodes":[],"categories_segments":[],"categories_sizes":[],"default_left":[0,0,0,0,0,0,0],"id":59,"left_children":[1,3,5,-1,-1,-1,-1],"loss_changes":[5.3923565E8,5.867423E8,7.163062E9,0E0,0E0,0E0,0E0],"parents":[2147483647,0,0,1,1,2,2],"right_children":[2,4,6,-1,-1,-1,-1],"split_conditions":[1E0,1.044E3,5.572E3,-6.0976807E1,3.7487793E1,1.1937148E3,-1.3335055E3],"split_indices":[68,10,2,0,0,0,0],"split_type":[0,0,0,0,0,0,0],"sum_hessian":[5.6804E4,5.5804E4,1E3,2.024E4,3.5564E4,3.93E2,6.07E2],"tree_param":{"num_deleted":"0","num_feature":"200","num_nodes":"7","size_leaf_vector":"1"}},{"base_weights":[-4.288586E0,8.420502E0,-6.9467566E2,4.5951103E1,-5.1335167E1,-1.5346475E3,1.4862859E3],"categories":[],"categories_nodes":[],"categories_segments":[],"categories_sizes":[],"default_left":[0,0,0,0,0,0,0],"id":60,"left_children":[1,3,5,-1,-1,-1,-1],"loss_changes":[4.994854E8,6.091735E8,1.0600335E10,0E0,0E0,0E0,0E0],"parents":[2147483647,0,0,1,1,2,2],"right_children":[2,4,6,-1,-1,-1,-1],"split_conditions":[1E0,8.454E3,1.638E3,4.5951103E1,-5.1335167E1,-1.5346475E3,1.4862859E3],"split_indices":[68,2,15,0,0,0,0],"split_type":[0,0,0,0,0,0,0],"sum_hessian":[5.6925E4,5.5897E4,1.028E3,3.1729E4,2.4168E4,6.15E2,4.13E2],"tree_param":{"num_deleted":"0","num_feature":"200","num_nodes":"7","size_leaf_vector":"1"}},{"base_weights":[-2.200724E0,-6.2784527E1,9.236509E1,7.026111E0,-5.610852E2,3.5890872E2,4.1380634E0],"categories":[],"categories_nodes":[],"categories_segments":[],"categories_sizes":[],"default_left":[0,0,0,0,0,0,0],"id":61,"left_children":[1,3,5,-1,-1,-1,-1],"loss_changes":[3.2592032E8,3.1172155E9,1.2691401E9,0E0,0E0,0E0,0E0],"parents":[2147483647,0,0,1,1,2,2],"right_children":[2,4,6,-1,-1,-1,-1],"split_conditions":[1.01272E5,8.454E3,9.611E3,7.026111E0,-5.610852E2,3.5890872E2,4.1380634E0],"split_indices":[5,2,2,0,0,0,0],"split_type":[0,0,0,0,0,0,0],"sum_hessian":[5.6886E4,3.4673E4,2.2213E4,3.2476E4,2.197E3,2.41E3,1.9803E4],"tree_param":{"num_deleted":"0","num_feature":"200","num_nodes":"7","size_leaf_vector":"1"}},{"base_weights":[1.1228478E0,1.8080794E2,-2.1932186E1,-1.2047443E1,4.4192514E2,-5.899708E2,-2.0787385E0],"categories":[],"categories_nodes":[],"categories_segments":[],"categories_sizes":[],"default_left":[0,0,0,0,0,0,0],"id":62,"left_children":[1,3,5,-1,-1,-1,-1],"loss_changes":[2.3562523E8,1.0390363E9,1.103499E9,0E0,0E0,0E0,0E0],"parents":[2147483647,0,0,1,1,2,2],"right_children":[2,4,6,-1,-1,-1,-1],"split_conditions":[2.3E2,2.01E2,2.69E2,-1.2047443E1,4.4192514E2,-5.899708E2,-2.0787385E0],"split_indices":[15,10,10,0,0,0,0],"split_type":[0,0,0,0,0,0,0],"sum_hessian":[5.6876E4,6.467E3,5.0409E4,5.107E3,1.36E3,6.89E2,4.972E4],"tree_param":{"num_deleted":"0","num_feature":"200","num_nodes":"7","size_leaf_vector":"1"}},{"base_weights":[4.1778445E0,-1.7643183E-1,9.589971E2,-3.111164E0,2.3595705E2,5.198187E2,-2.8806807E3],"categories":[],"categories_nodes":[],"categories_segments":[],"categories_sizes":[],"default_left":[0,0,0,0,0,0,0],"id":63,"left_children":[1,3,5,-1,-1,-1,-1],"loss_changes":[2.36286E8,1.8981789E8,3.170425E8,0E0,0E0,0E0,0E0],"parents":[2147483647,0,0,1,1,2,2],"right_children":[2,4,6,-1,-1,-1,-1],"split_conditions":[2.966E3,4.24E2,1E0,-3.111164E0,2.3595705E2,5.198187E2,-2.8806807E3],"split_indices":[10,38,68,0,0,0,0],"split_type":[0,0,0,0,0,0,0],"sum_hessian":[5.6832E4,5.6575E4,2.57E2,5.5859E4,7.16E2,2.52E2,5E0],"tree_param":{"num_deleted":"0","num_feature":"200","num_nodes":"7","size_leaf_vector":"1"}},{"base_weights":[1.8827914E0,-5.7885086E1,5.554092E1,-4.3297726E1,9.058297E2,4.8198886E2,-1.1871097E1],"categories":[],"categories_nodes":[],"categories_segments":[],"categories_sizes":[],"default_left":[0,0,0,0,0,0,0],"id":64,"left_children":[1,3,5,-1,-1,-1,-1],"loss_changes":[1.8284256E8,1.9558323E9,2.4128358E9,0E0,0E0,0E0,0E0],"parents":[2147483647,0,0,1,1,2,2],"right_children":[2,4,6,-1,-1,-1,-1],"split_conditions":[1.265E3,1E0,7.119E3,-4.3297726E1,9.058297E2,4.8198886E2,-1.1871097E1],"split_indices":[15,68,2,0,0,0,0],"split_type":[0,0,0,0,0,0,0],"sum_hessian":[5.7011E4,2.697E4,3.0041E4,2.65E4,4.7E2,2.281E3,2.776E4],"tree_param":{"num_deleted":"0","num_feature":"200","num_nodes":"7","size_leaf_vector":"1"}},{"base_weights":[1.5650345E0,1.6145908E2,-2.6340925E1,3.7315098E1,7.4256885E2,-4.9573315E2,-2.9304473E0],"categories":[],"categories_nodes":[],"categories_segments":[],"categories_sizes":[],"default_left":[0,0,0,0,0,0,0],"id":65,"left_children":[1,3,5,-1,-1,-1,-1],"loss_changes":[2.5544912E8,9.924135E8,1.0207473E9,0E0,0E0,0E0,0E0],"parents":[2147483647,0,0,1,1,2,2],"right_children":[2,4,6,-1,-1,-1,-1],"split_conditions":[3.73E2,3.52E2,2.162E3,3.7315098E1,7.4256885E2,-4.9573315E2,-2.9304473E0],"split_indices":[10,10,2,0,0,0,0],"split_type":[0,0,0,0,0,0,0],"sum_hessian":[5.7248E4,8.506E3,4.8742E4,8.058E3,4.48E2,9.12E2,4.783E4],"tree_param":{"num_deleted":"0","num_feature":"200","num_nodes":"7","size_leaf_vector":"1"}},{"base_weights":[-9.598229E0,5.032857E0,-8.515011E2,-1.6431831E1,6.6417114E1,-1.252547E3,8.5262476E2],"categories":[],"categories_nodes":[],"categories_segments":[],"categories_sizes":[],"default_left":[0,0,0,0,0,0,0],"id":66,"left_children":[1,3,5,-1,-1,-1,-1],"loss_changes":[7.00206E8,3.1511638E8,4.882205E9,0E0,0E0,0E0,0E0],"parents":[2147483647,0,0,1,1,2,2],"right_children":[2,4,6,-1,-1,-1,-1],"split_conditions":[1E0,2.26E3,1.638E3,-1.6431831E1,6.6417114E1,-1.252547E3,8.5262476E2],"split_indices":[68,10,15,0,0,0,0],"split_type":[0,0,0,0,0,0,0],"sum_hessian":[5.6843E4,5.5873E4,9.7E2,4.3225E4,1.2648E4,5.74E2,3.96E2],"tree_param":{"num_deleted":"0","num_feature":"200","num_nodes":"7","size_leaf_vector":"1"}},{"base_weights":[3.8815827E0,1.1928036E2,-5.3343723E1,2.4282421E1,1.7335391E3,-6.5280766E0,-1.03343E3],"categories":[],"categories_nodes":[],"categories_segments":[],"categories_sizes":[],"default_left":[0,0,0,0,0,0,0],"id":67,"left_children":[1,3,5,-1,-1,-1,-1],"loss_changes":[3.738303E8,4.5493586E9,3.2417085E9,0E0,0E0,0E0,0E0],"parents":[2147483647,0,0,1,1,2,2],"right_children":[2,4,6,-1,-1,-1,-1],"split_conditions":[4.657E3,1E0,1E0,2.4282421E1,1.7335391E3,-6.5280766E0,-1.03343E3],"split_indices":[2,68,68,0,0,0,0],"split_type":[0,0,0,0,0,0,0],"sum_hessian":[5.6607E4,1.8765E4,3.7842E4,1.8428E4,3.37E2,3.7176E4,6.66E2],"tree_param":{"num_deleted":"0","num_feature":"200","num_nodes":"7","size_leaf_vector":"1"}},{"base_weights":[7.202767E0,3.3625706E1,-1.5856107E2,4.0653663E0,8.7900867E2,-8.712979E2,-1.7617893E0],"categories":[],"categories_nodes":[],"categories_segments":[],"categories_sizes":[],"default_left":[0,0,0,0,0,0,0],"id":68,"left_children":[1,3,5,-1,-1,-1,-1],"loss_changes":[2.4931746E8,2.2790746E9,2.093463E9,0E0,0E0,0E0,0E0],"parents":[2147483647,0,0,1,1,2,2],"right_children":[2,4,6,-1,-1,-1,-1],"split_conditions":[1.23134E5,1.21052E5,1.2474E5,4.0653663E0,8.7900867E2,-8.712979E2,-1.7617893E0],"split_indices":[4,4,4,0,0,0,0],"split_type":[0,0,0,0,0,0,0],"sum_hessian":[5.692E4,4.9095E4,7.825E3,4.8453E4,6.42E2,6.42E2,7.183E3],"tree_param":{"num_deleted":"0","num_feature":"200","num_nodes":"7","size_leaf_vector":"1"}},{"base_weights":[2.2340648E0,2.0680378E1,-1.7761617E2,-9.8027277E-1,8.3248035E2,-7.05737E2,5.9107947E0],"categories":[],"categories_nodes":[],"categories_segments":[],"categories_sizes":[],"default_left":[0,0,0,0,0,0,0],"id":69,"left_children":[1,3,5,-1,-1,-1,-1],"loss_changes":[1.8880347E8,2.0980228E9,1.3619363E9,0E0,0E0,0E0,0E0],"parents":[2147483647,0,0,1,1,2,2],"right_children":[2,4,6,-1,-1,-1,-1],"split_conditions":[1.335E4,1.3212E4,1.51055E5,-9.8027277E-1,8.3248035E2,-7.05737E2,5.9107947E0],"split_indices":[2,2,5,0,0,0,0],"split_type":[0,0,0,0,0,0,0],"sum_hessian":[5.6908E4,5.1615E4,5.293E3,5.0964E4,6.51E2,6.53E2,4.64E3],"tree_param":{"num_deleted":"0","num_feature":"200","num_nodes":"7","size_leaf_vector":"1"}},{"base_weights":[-7.879661E0,1.4265183E1,-1.13452965E2,2.2616144E1,-4.571471E1,-5.215898E2,-2.2622488E1],"categories":[],"categories_nodes":[],"categories_segments":[],"categories_sizes":[],"default_left":[0,0,0,0,0,0,0],"id":70,"left_children":[1,3,5,-1,-1,-1,-1],"loss_changes":[1.3340712E8,1.8553531E8,6.4803936E8,0E0,0E0,0E0,0E0],"parents":[2147483647,0,0,1,1,2,2],"right_children":[2,4,6,-1,-1,-1,-1],"split_conditions":[3.3E2,1.1005E4,7.07E2,2.2616144E1,-4.571471E1,-5.215898E2,-2.2622488E1],"split_indices":[38,2,15,0,0,0,0],"split_type":[0,0,0,0,0,0,0],"sum_hessian":[5.7061E4,4.7168E4,9.893E3,3.6103E4,1.1065E4,5.89E2,9.304E3],"tree_param":{"num_deleted":"0","num_feature":"200","num_nodes":"7","size_leaf_vector":"1"}},{"base_weights":[5.4270473E0,-5.9529892E1,4.930103E1,-4.0495496E0,-4.1022433E2,2.2543669E2,2.6548662E0],"categories":[],"categories_nodes":[],"categories_segments":[],"categories_sizes":[],"default_left":[0,0,0,0,0,0,0],"id":71,"left_children":[1,3,5,-1,-1,-1,-1],"loss_changes":[1.6247402E8,9.671056E8,6.5053926E8,0E0,0E0,0E0,0E0],"parents":[2147483647,0,0,1,1,2,2],"right_children":[2,4,6,-1,-1,-1,-1],"split_conditions":[6.51E2,6.07E2,4.657E3,-4.0495496E0,-4.1022433E2,2.2543669E2,2.6548662E0],"split_indices":[46,46,2,0,0,0,0],"split_type":[0,0,0,0,0,0,0],"sum_hessian":[5.7008E4,2.2982E4,3.4026E4,2.1657E4,1.325E3,3.07E3,3.0956E4],"tree_param":{"num_deleted":"0","num_feature":"200","num_nodes":"7","size_leaf_vector":"1"}},{"base_weights":[-4.1444907E0,-6.980285E0,9.22304E2,-2.1551666E2,-6.408578E-1,6.174443E2,3.2963464E2],"categories":[],"categories_nodes":[],"categories_segments":[],"categories_sizes":[],"default_left":[0,0,0,0,0,0,0],"id":72,"left_children":[1,3,5,-1,-1,-1,-1],"loss_changes":[1.498025E8,1.4617032E8,1.4090512E7,0E0,0E0,0E0,0E0],"parents":[2147483647,0,0,1,1,2,2],"right_children":[2,4,6,-1,-1,-1,-1],"split_conditions":[1.5E2,1.274E3,5E0,-2.1551666E2,-6.408578E-1,6.174443E2,3.2963464E2],"split_indices":[1,5,72,0,0,0,0],"split_type":[0,0,0,0,0,0,0],"sum_hessian":[5.7016E4,5.6843E4,1.73E2,6.82E2,5.6161E4,5.6E1,1.17E2],"tree_param":{"num_deleted":"0","num_feature":"200","num_nodes":"7","size_leaf_vector":"1"}},{"base_weights":[7.464518E0,-6.744609E1,4.1210327E1,2.5199936E1,-2.4311058E2,7.678479E2,-3.004372E0],"categories":[],"categories_nodes":[],"categories_segments":[],"categories_sizes":[],"default_left":[0,0,0,0,0,0,0],"id":73,"left_children":[1,3,5,-1,-1,-1,-1],"loss_changes":[1.4369477E8,9.8913024E8,3.0330598E9,0E0,0E0,0E0,0E0],"parents":[2147483647,0,0,1,1,2,2],"right_children":[2,4,6,-1,-1,-1,-1],"split_conditions":[8.81E2,3.8882E4,4.657E3,2.5199936E1,-2.4311058E2,7.678479E2,-3.004372E0],"split_indices":[10,5,2,0,0,0,0],"split_type":[0,0,0,0,0,0,0],"sum_hessian":[5.6841E4,1.7653E4,3.9188E4,1.3947E4,3.706E3,1.119E3,3.8069E4],"tree_param":{"num_deleted":"0","num_feature":"200","num_nodes":"7","size_leaf_vector":"1"}},{"base_weights":[-4.61275E0,-5.418995E1,6.657197E1,-3.926688E0,-6.028184E2,1.617388E1,8.103667E2],"categories":[],"categories_nodes":[],"categories_segments":[],"categories_sizes":[],"default_left":[0,0,0,0,0,0,0],"id":74,"left_children":[1,3,5,-1,-1,-1,-1],"loss_changes":[2.0161979E8,1.9254117E9,1.2490973E9,0E0,0E0,0E0,0E0],"parents":[2147483647,0,0,1,1,2,2],"right_children":[2,4,6,-1,-1,-1,-1],"split_conditions":[9.8357E4,8.454E3,1E0,-3.926688E0,-6.028184E2,1.617388E1,8.103667E2],"split_indices":[5,2,68,0,0,0,0],"split_type":[0,0,0,0,0,0,0],"sum_hessian":[5.7128E4,3.3675E4,2.3453E4,3.249E4,1.185E3,2.3024E4,4.29E2],"tree_param":{"num_deleted":"0","num_feature":"200","num_nodes":"7","size_leaf_vector":"1"}},{"base_weights":[1.4228066E0,-1.2932765E0,9.0850684E2,-2.5340488E0,2.4493956E2,4.2899963E2,-8.685401E1],"categories":[],"categories_nodes":[],"categories_segments":[],"categories_sizes":[],"default_left":[0,0,0,0,0,0,0],"id":75,"left_children":[1,3,5,-1,-1,-1,-1],"loss_changes":[1.4112035E8,1.27428344E8,4.057024E6,0E0,0E0,0E0,0E0],"parents":[2147483647,0,0,1,1,2,2],"right_children":[2,4,6,-1,-1,-1,-1],"split_conditions":[1.5E2,2.773E3,2E0,-2.5340488E0,2.4493956E2,4.2899963E2,-8.685401E1],"split_indices":[1,15,52,0,0,0,0],"split_type":[0,0,0,0,0,0,0],"sum_hessian":[5.7278E4,5.7108E4,1.7E2,5.6662E4,4.46E2,1.67E2,3E0],"tree_param":{"num_deleted":"0","num_feature":"200","num_nodes":"7","size_leaf_vector":"1"}},{"base_weights":[-2.1949246E0,-7.132098E1,3.661464E1,9.392947E0,-5.308212E2,2.8565105E1,-6.199063E2],"categories":[],"categories_nodes":[],"categories_segments":[],"categories_sizes":[],"default_left":[0,0,0,0,0,0,0],"id":76,"left_children":[1,3,5,-1,-1,-1,-1],"loss_changes":[1.525734E8,2.0215227E9,1.2689805E9,0E0,0E0,0E0,0E0],"parents":[2147483647,0,0,1,1,2,2],"right_children":[2,4,6,-1,-1,-1,-1],"split_conditions":[5.8519E4,4.657E3,1E0,9.392947E0,-5.308212E2,2.8565105E1,-6.199063E2],"split_indices":[5,2,68,0,0,0,0],"split_type":[0,0,0,0,0,0,0],"sum_hessian":[5.687E4,2.0448E4,3.6422E4,1.8847E4,1.601E3,3.5768E4,6.54E2],"tree_param":{"num_deleted":"0","num_feature":"200","num_nodes":"7","size_leaf_vector":"1"}},{"base_weights":[4.948681E0,-5.7399303E1,4.0610653E1,-7.958299E0,-2.6005298E2,6.251408E2,6.740436E0],"categories":[],"categories_nodes":[],"categories_segments":[],"categories_sizes":[],"default_left":[0,0,0,0,0,0,0],"id":77,"left_children":[1,3,5,-1,-1,-1,-1],"loss_changes":[1.2653454E8,4.2068867E8,1.2367767E9,0E0,0E0,0E0,0E0],"parents":[2147483647,0,0,1,1,2,2],"right_children":[2,4,6,-1,-1,-1,-1],"split_conditions":[5.69E2,5.02E2,3.8882E4,-7.958299E0,-2.6005298E2,6.251408E2,6.740436E0],"split_indices":[46,46,5,0,0,0,0],"split_type":[0,0,0,0,0,0,0],"sum_hessian":[5.6907E4,2.0706E4,3.6201E4,1.9184E4,1.522E3,7.02E2,3.5499E4],"tree_param":{"num_deleted":"0","num_feature":"200","num_nodes":"7","size_leaf_vector":"1"}},{"base_weights":[-2.7873118E0,-7.3297634E0,5.9688635E2,6.449602E1,-9.902269E0,8.5988275E2,-1.7877932E3],"categories":[],"categories_nodes":[],"categories_segments":[],"categories_sizes":[],"default_left":[0,0,0,0,0,0,0],"id":78,"left_children":[1,3,5,-1,-1,-1,-1],"loss_changes":[1.5544059E8,1.1756403E8,2.4337697E9,0E0,0E0,0E0,0E0],"parents":[2147483647,0,0,1,1,2,2],"right_children":[2,4,6,-1,-1,-1,-1],"split_conditions":[3E0,1.06E2,1.10949E5,6.449602E1,-9.902269E0,8.5988275E2,-1.7877932E3],"split_indices":[73,46,4,0,0,0,0],"split_type":[0,0,0,0,0,0,0],"sum_hessian":[5.7061E4,5.6633E4,4.28E2,4.961E3,5.1672E4,3.34E2,9.4E1],"tree_param":{"num_deleted":"0","num_feature":"200","num_nodes":"7","size_leaf_vector":"1"}},{"base_weights":[-3.7073996E0,-4.4839912E1,4.1452015E1,6.5001445E0,-3.3621237E2,2.5279878E2,-4.6846495E0],"categories":[],"categories_nodes":[],"categories_segments":[],"categories_sizes":[],"default_left":[0,0,0,0,0,0,0],"id":79,"left_children":[1,3,5,-1,-1,-1,-1],"loss_changes":[1.0508735E8,1.1921348E9,7.0423846E8,0E0,0E0,0E0,0E0],"parents":[2147483647,0,0,1,1,2,2],"right_children":[2,4,6,-1,-1,-1,-1],"split_conditions":[1.565E3,7.119E3,8.454E3,6.5001445E0,-3.3621237E2,2.5279878E2,-4.6846495E0],"split_indices":[10,2,2,0,0,0,0],"split_type":[0,0,0,0,0,0,0],"sum_hessian":[5.6572E4,2.9606E4,2.6966E4,2.7257E4,2.349E3,2.494E3,2.4472E4],"tree_param":{"num_deleted":"0","num_feature":"200","num_nodes":"7","size_leaf_vector":"1"}},{"base_weights":[-6.2240853E0,7.737771E-1,-2.8346378E2,-2.7765474E1,1.8420553E1,-1.1068617E2,-3.6341094E3],"categories":[],"categories_nodes":[],"categories_segments":[],"categories_sizes":[],"default_left":[0,0,0,0,0,0,0],"id":80,"left_children":[1,3,5,-1,-1,-1,-1],"loss_changes":[1.1048031E8,1.3237953E8,4.63206E8,0E0,0E0,0E0,0E0],"parents":[2147483647,0,0,1,1,2,2],"right_children":[2,4,6,-1,-1,-1,-1],"split_conditions":[6.3E1,1.32E2,3E0,-2.7765474E1,1.8420553E1,-1.1068617E2,-3.6341094E3],"split_indices":[56,38,73,0,0,0,0],"split_type":[0,0,0,0,0,0,0],"sum_hessian":[5.6945E4,5.5544E4,1.401E3,2.1723E4,3.3821E4,1.394E3,7E0],"tree_param":{"num_deleted":"0","num_feature":"200","num_nodes":"7","size_leaf_vector":"1"}},{"base_weights":[3.2297983E0,-7.688283E1,3.2368385E1,3.177762E0,-5.255446E2,2.7176056E2,8.060753E0],"categories":[],"categories_nodes":[],"categories_segments":[],"categories_sizes":[],"default_left":[0,0,0,0,0,0,0],"id":81,"left_children":[1,3,5,-1,-1,-1,-1],"loss_changes":[1.3294012E8,1.350501E9,3.4631562E8,0E0,0E0,0E0,0E0],"parents":[2147483647,0,0,1,1,2,2],"right_children":[2,4,6,-1,-1,-1,-1],"split_conditions":[7.28E2,3.8882E4,8.01E2,3.177762E0,-5.255446E2,2.7176056E2,8.060753E0],"split_indices":[10,5,10,0,0,0,0],"split_type":[0,0,0,0,0,0,0],"sum_hessian":[5.6947E4,1.5188E4,4.1759E4,1.4078E4,1.11E3,1.089E3,4.067E4],"tree_param":{"num_deleted":"0","num_feature":"200","num_nodes":"7","size_leaf_vector":"1"}},{"base_weights":[-1.2058122E0,1.0054416E1,-1.8498979E2,-1.4450621E-2,5.667009E2,-5.5835004E2,-1.5212893E1],"categories":[],"categories_nodes":[],"categories_segments":[],"categories_sizes":[],"default_left":[0,0,0,0,0,0,0],"id":82,"left_children":[1,3,5,-1,-1,-1,-1],"loss_changes":[1.17610744E8,6.575259E8,5.1096675E8,0E0,0E0,0E0,0E0],"parents":[2147483647,0,0,1,1,2,2],"right_children":[2,4,6,-1,-1,-1,-1],"split_conditions":[1.55515E5,1.54197E5,1.4004E4,-1.4450621E-2,5.667009E2,-5.5835004E2,-1.5212893E1],"split_indices":[5,5,2,0,0,0,0],"split_type":[0,0,0,0,0,0,0],"sum_hessian":[5.683E4,5.355E4,3.28E3,5.3111E4,4.39E2,4.23E2,2.857E3],"tree_param":{"num_deleted":"0","num_feature":"200","num_nodes":"7","size_leaf_vector":"1"}},{"base_weights":[6.105438E0,1.3599747E1,-3.0644827E2,-7.2019854E0,5.260847E1,-1.22369316E2,-1.3920078E3],"categories":[],"categories_nodes":[],"categories_segments":[],"categories_sizes":[],"default_left":[0,0,0,0,0,0,0],"id":83,"left_children":[1,3,5,-1,-1,-1,-1],"loss_changes":[1.33542904E8,1.6313968E8,1.488947E8,0E0,0E0,0E0,0E0],"parents":[2147483647,0,0,1,1,2,2],"right_children":[2,4,6,-1,-1,-1,-1],"split_conditions":[1E0,3.6E1,1E0,-7.2019854E0,5.260847E1,-1.22369316E2,-1.3920078E3],"split_indices":[37,56,68,0,0,0,0],"split_type":[0,0,0,0,0,0,0],"sum_hessian":[5.7009E4,5.5675E4,1.334E3,4.3127E4,1.2548E4,1.315E3,1.9E1],"tree_param":{"num_deleted":"0","num_feature":"200","num_nodes":"7","size_leaf_vector":"1"}},{"base_weights":[-1.6815758E0,3.4442593E2,-6.512128E0,-2.13058E2,3.196402E2,4.965478E0,-5.069852E1],"categories":[],"categories_nodes":[],"categories_segments":[],"categories_sizes":[],"default_left":[0,0,0,0,0,0,0],"id":84,"left_children":[1,3,5,-1,-1,-1,-1],"loss_changes":[9.522644E7,2.2014122E8,1.0019808E8,0E0,0E0,0E0,0E0],"parents":[2147483647,0,0,1,1,2,2],"right_children":[2,4,6,-1,-1,-1,-1],"split_conditions":[5E0,6.71E2,1.2611E4,-2.13058E2,3.196402E2,4.965478E0,-5.069852E1],"split_indices":[48,2,2,0,0,0,0],"split_type":[0,0,0,0,0,0,0],"sum_hessian":[5.6955E4,7.83E2,5.6172E4,2.36E2,5.47E2,4.8128E4,8.044E3],"tree_param":{"num_deleted":"0","num_feature":"200","num_nodes":"7","size_leaf_vector":"1"}},{"base_weights":[3.9692304E0,-3.8134617E1,3.8013393E1,-3.10905E1,7.1653815E2,2.8341314E1,-5.9462476E2],"categories":[],"categories_nodes":[],"categories_segments":[],"categories_sizes":[],"default_left":[0,0,0,0,0,0,0],"id":85,"left_children":[1,3,5,-1,-1,-1,-1],"loss_changes":[8.140655E7,1.1793564E9,9.733098E8,0E0,0E0,0E0,0E0],"parents":[2147483647,0,0,1,1,2,2],"right_children":[2,4,6,-1,-1,-1,-1],"split_conditions":[1.309E3,1E0,1E0,-3.10905E1,7.1653815E2,2.8341314E1,-5.9462476E2],"split_indices":[10,68,68,0,0,0,0],"split_type":[0,0,0,0,0,0,0],"sum_hessian":[5.6791E4,2.539E4,3.1401E4,2.4933E4,4.57E2,3.0858E4,5.43E2],"tree_param":{"num_deleted":"0","num_feature":"200","num_nodes":"7","size_leaf_vector":"1"}},{"base_weights":[7.78412E0,-4.96504E-1,4.7142517E2,2.6304308E1,-4.0207344E1,-7.9358734E2,1.5980452E3],"categories":[],"categories_nodes":[],"categories_segments":[],"categories_sizes":[],"default_left":[0,0,0,0,0,0,0],"id":86,"left_children":[1,3,5,-1,-1,-1,-1],"loss_changes":[2.1923987E8,2.7921085E8,6.567967E9,0E0,0E0,0E0,0E0],"parents":[2147483647,0,0,1,1,2,2],"right_children":[2,4,6,-1,-1,-1,-1],"split_conditions":[1E0,1.638E3,8.454E3,2.6304308E1,-4.0207344E1,-7.9358734E2,1.5980452E3],"split_indices":[68,15,2,0,0,0,0],"split_type":[0,0,0,0,0,0,0],"sum_hessian":[5.7104E4,5.6103E4,1.001E3,3.3722E4,2.2381E4,5.78E2,4.23E2],"tree_param":{"num_deleted":"0","num_feature":"200","num_nodes":"7","size_leaf_vector":"1"}},{"base_weights":[-2.398008E0,3.081526E0,-2.7917938E2,-5.253928E0,4.9563763E1,-8.744877E1,-1.9884768E3],"categories":[],"categories_nodes":[],"categories_segments":[],"categories_sizes":[],"default_left":[0,0,0,0,0,0,0],"id":87,"left_children":[1,3,5,-1,-1,-1,-1],"loss_changes":[8.617139E7,8.401636E7,3.9798915E8,0E0,0E0,0E0,0E0],"parents":[2147483647,0,0,1,1,2,2],"right_children":[2,4,6,-1,-1,-1,-1],"split_conditions":[6.4E1,2.598E3,1.40289E5,-5.253928E0,4.9563763E1,-8.744877E1,-1.9884768E3],"split_indices":[56,10,4,0,0,0,0],"split_type":[0,0,0,0,0,0,0],"sum_hessian":[5.6816E4,5.5714E4,1.102E3,4.8929E4,6.785E3,1.079E3,2.3E1],"tree_param":{"num_deleted":"0","num_feature":"200","num_nodes":"7","size_leaf_vector":"1"}},{"base_weights":[-6.819407E-1,-3.0724463E0,4.868719E2,6.8131447E-1,-1.1490874E2,-3.8252377E2,3.3145526E2],"categories":[],"categories_nodes":[],"categories_segments":[],"categories_sizes":[],"default_left":[0,0,0,0,0,0,0],"id":88,"left_children":[1,3,5,-1,-1,-1,-1],"loss_changes":[6.6407036E7,6.339128E7,8.5089064E7,0E0,0E0,0E0,0E0],"parents":[2147483647,0,0,1,1,2,2],"right_children":[2,4,6,-1,-1,-1,-1],"split_conditions":[1E0,1E0,1.455E3,6.8131447E-1,-1.1490874E2,-3.8252377E2,3.3145526E2],"split_indices":[13,68,2,0,0,0,0],"split_type":[0,0,0,0,0,0,0],"sum_hessian":[5.6975E4,5.6698E4,2.77E2,5.5669E4,1.029E3,4.1E1,2.36E2],"tree_param":{"num_deleted":"0","num_feature":"200","num_nodes":"7","size_leaf_vector":"1"}},{"base_weights":[-6.383773E0,2.1573015E1,-5.8779537E1,-9.080063E-1,6.877326E2,-9.9729596E2,-1.586151E1],"categories":[],"categories_nodes":[],"categories_segments":[],"categories_sizes":[],"default_left":[0,0,0,0,0,0,0],"id":89,"left_children":[1,3,5,-1,-1,-1,-1],"loss_changes":[8.355445E7,1.2853697E9,1.0184772E9,0E0,0E0,0E0,0E0],"parents":[2147483647,0,0,1,1,2,2],"right_children":[2,4,6,-1,-1,-1,-1],"split_conditions":[9.611E3,9.2666E4,1.0858E5,-9.080063E-1,6.877326E2,-9.9729596E2,-1.586151E1],"split_indices":[2,4,5,0,0,0,0],"split_type":[0,0,0,0,0,0,0],"sum_hessian":[5.7039E4,3.7194E4,1.9845E4,3.6608E4,5.86E2,2.27E2,1.9618E4],"tree_param":{"num_deleted":"0","num_feature":"200","num_nodes":"7","size_leaf_vector":"1"}},{"base_weights":[-4.535771E0,-8.6633456E-1,-5.03356E2,-9.436962E0,3.7665802E1,-9.5423303E2,6.3581366E2],"categories":[],"categories_nodes":[],"categories_segments":[],"categories_sizes":[],"default_left":[0,0,0,0,0,0,0],"id":90,"left_children":[1,3,5,-1,-1,-1,-1],"loss_changes":[1.0402058E8,9.1050424E7,1.2230314E9,0E0,0E0,0E0,0E0],"parents":[2147483647,0,0,1,1,2,2],"right_children":[2,4,6,-1,-1,-1,-1],"split_conditions":[3E0,1.653E3,8.454E3,-9.436962E0,3.7665802E1,-9.5423303E2,6.3581366E2],"split_indices":[73,46,2,0,0,0,0],"split_type":[0,0,0,0,0,0,0],"sum_hessian":[5.6829E4,5.6415E4,4.14E2,4.5592E4,1.0823E4,2.26E2,1.88E2],"tree_param":{"num_deleted":"0","num_feature":"200","num_nodes":"7","size_leaf_vector":"1"}},{"base_weights":[4.4898405E0,2.7688015E1,-6.516711E1,5.3837657E-1,6.862566E2,3.7681015E0,-1.7627843E3],"categories":[],"categories_nodes":[],"categories_segments":[],"categories_sizes":[],"default_left":[0,0,0,0,0,0,0],"id":91,"left_children":[1,3,5,-1,-1,-1,-1],"loss_changes":[9.1800264E7,1.6487855E9,3.9059942E9,0E0,0E0,0E0,0E0],"parents":[2147483647,0,0,1,1,2,2],"right_children":[2,4,6,-1,-1,-1,-1],"split_conditions":[1.23094E5,1E0,1E0,5.3837657E-1,6.862566E2,3.7681015E0,-1.7627843E3],"split_indices":[5,68,68,0,0,0,0],"split_type":[0,0,0,0,0,0,0],"sum_hessian":[5.6808E4,4.2616E4,1.4192E4,4.1856E4,7.6E2,1.3921E4,2.71E2],"tree_param":{"num_deleted":"0","num_feature":"200","num_nodes":"7","size_leaf_vector":"1"}},{"base_weights":[6.6757876E-1,7.4682355E0,-3.797602E2,2.3952383E1,-2.3800867E1,-9.1671686E2,7.7901575E2],"categories":[],"categories_nodes":[],"categories_segments":[],"categories_sizes":[],"default_left":[0,0,0,0,0,0,0],"id":92,"left_children":[1,3,5,-1,-1,-1,-1],"loss_changes":[1.467232E8,1.4604832E8,3.3095073E9,0E0,0E0,0E0,0E0],"parents":[2147483647,0,0,1,1,2,2],"right_children":[2,4,6,-1,-1,-1,-1],"split_conditions":[1E0,8.454E3,8.454E3,2.3952383E1,-2.3800867E1,-9.1671686E2,7.7901575E2],"split_indices":[68,2,2,0,0,0,0],"split_type":[0,0,0,0,0,0,0],"sum_hessian":[5.671E4,5.5715E4,9.95E2,3.1792E4,2.3923E4,5.6E2,4.35E2],"tree_param":{"num_deleted":"0","num_feature":"200","num_nodes":"7","size_leaf_vector":"1"}},{"base_weights":[6.6545315E0,-1.3125353E1,6.696913E1,-1.6534039E1,5.631194E2,5.4164585E1,-1.3184673E3],"categories":[],"categories_nodes":[],"categories_segments":[],"categories_sizes":[],"default_left":[0,0,0,0,0,0,0],"id":93,"left_children":[1,3,5,-1,-1,-1,-1],"loss_changes":[6.7593576E7,1.1933969E9,2.059445E9,0E0,0E0,0E0,0E0],"parents":[2147483647,0,0,1,1,2,2],"right_children":[2,4,6,-1,-1,-1,-1],"split_conditions":[2.053E3,1E0,1E0,-1.6534039E1,5.631194E2,5.4164585E1,-1.3184673E3],"split_indices":[15,68,68,0,0,0,0],"split_type":[0,0,0,0,0,0,0],"sum_hessian":[5.6656E4,4.2665E4,1.3991E4,4.1895E4,7.7E2,1.3755E4,2.36E2],"tree_param":{"num_deleted":"0","num_feature":"200","num_nodes":"7","size_leaf_vector":"1"}},{"base_weights":[-5.919586E0,7.033591E0,-1.331892E2,-3.941142E0,4.0738077E2,-1.0397883E3,-3.1122114E1],"categories":[],"categories_nodes":[],"categories_segments":[],"categories_sizes":[],"default_left":[0,0,0,0,0,0,0],"id":94,"left_children":[1,3,5,-1,-1,-1,-1],"loss_changes":[9.426313E7,7.0733843E8,7.360772E8,0E0,0E0,0E0,0E0],"parents":[2147483647,0,0,1,1,2,2],"right_children":[2,4,6,-1,-1,-1,-1],"split_conditions":[1.335E4,2.637E3,2.692E3,-3.941142E0,4.0738077E2,-1.0397883E3,-3.1122114E1],"split_indices":[2,10,10,0,0,0,0],"split_type":[0,0,0,0,0,0,0],"sum_hessian":[5.7178E4,5.1897E4,5.281E3,5.0991E4,9.06E2,1.58E2,5.123E3],"tree_param":{"num_deleted":"0","num_feature":"200","num_nodes":"7","size_leaf_vector":"1"}},{"base_weights":[2.7535503E0,-7.5234504E0,1.3048825E2,-6.9857746E-1,-3.5169772E2,4.7499683E1,1.7948342E3],"categories":[],"categories_nodes":[],"categories_segments":[],"categories_sizes":[],"default_left":[0,0,0,0,0,0,0],"id":95,"left_children":[1,3,5,-1,-1,-1,-1],"loss_changes":[7.499329E7,2.3969262E8,4.40793E8,0E0,0E0,0E0,0E0],"parents":[2147483647,0,0,1,1,2,2],"right_children":[2,4,6,-1,-1,-1,-1],"split_conditions":[3.83E2,3.77E2,6.3E1,-6.9857746E-1,-3.5169772E2,4.7499683E1,1.7948342E3],"split_indices":[38,38,56,0,0,0,0],"split_type":[0,0,0,0,0,0,0],"sum_hessian":[5.7126E4,5.2873E4,4.253E3,5.2456E4,4.17E2,4.223E3,3E1],"tree_param":{"num_deleted":"0","num_feature":"200","num_nodes":"7","size_leaf_vector":"1"}},{"base_weights":[-7.9719095E0,2.138725E1,-9.6300964E1,-5.642748E-1,6.6234424E2,-2.4282984E1,-1.1661832E3],"categories":[],"categories_nodes":[],"categories_segments":[],"categories_sizes":[],"default_left":[0,0,0,0,0,0,0],"id":96,"left_children":[1,3,5,-1,-1,-1,-1],"loss_changes":[1.4767563E8,1.3656602E9,1.5083402E9,0E0,0E0,0E0,0E0],"parents":[2147483647,0,0,1,1,2,2],"right_children":[2,4,6,-1,-1,-1,-1],"split_conditions":[1.23094E5,1.21225E5,1E0,-5.642748E-1,6.6234424E2,-2.4282984E1,-1.1661832E3],"split_indices":[5,5,68,0,0,0,0],"split_type":[0,0,0,0,0,0,0],"sum_hessian":[5.6944E4,4.2739E4,1.4205E4,4.2067E4,6.72E2,1.3955E4,2.5E2],"tree_param":{"num_deleted":"0","num_feature":"200","num_nodes":"7","size_leaf_vector":"1"}},{"base_weights":[1.4000797E0,3.4796783E1,-5.3302437E1,5.677538E0,5.38605E2,-7.984814E2,-8.363616E0],"categories":[],"categories_nodes":[],"categories_segments":[],"categories_sizes":[],"default_left":[0,0,0,0,0,0,0],"id":97,"left_children":[1,3,5,-1,-1,-1,-1],"loss_changes":[1.0430778E8,9.027734E8,1.2765394E9,0E0,0E0,0E0,0E0],"parents":[2147483647,0,0,1,1,2,2],"right_children":[2,4,6,-1,-1,-1,-1],"split_conditions":[1.168E3,1.132E3,1.194E3,5.677538E0,5.38605E2,-7.984814E2,-8.363616E0],"split_indices":[46,46,46,0,0,0,0],"split_type":[0,0,0,0,0,0,0],"sum_hessian":[5.7094E4,3.5451E4,2.1643E4,3.4761E4,6.9E2,4.44E2,2.1199E4],"tree_param":{"num_deleted":"0","num_feature":"200","num_nodes":"7","size_leaf_vector":"1"}},{"base_weights":[2.4591365E0,-3.8584225E0,8.763152E2,-5.815115E0,8.085831E1,1.1990615E3,-1.7706627E2],"categories":[],"categories_nodes":[],"categories_segments":[],"categories_sizes":[],"default_left":[0,0,0,0,0,0,0],"id":98,"left_children":[1,3,5,-1,-1,-1,-1],"loss_changes":[3.1458035E8,8.847865E7,8.877014E8,0E0,0E0,0E0,0E0],"parents":[2147483647,0,0,1,1,2,2],"right_children":[2,4,6,-1,-1,-1,-1],"split_conditions":[3E0,1.57322E5,1.182E3,-5.815115E0,8.085831E1,1.1990615E3,-1.7706627E2],"split_indices":[73,5,15,0,0,0,0],"split_type":[0,0,0,0,0,0,0],"sum_hessian":[5.6981E4,5.6573E4,4.08E2,5.3941E4,2.632E3,1.72E2,2.36E2],"tree_param":{"num_deleted":"0","num_feature":"200","num_nodes":"7","size_leaf_vector":"1"}},{"base_weights":[-4.9896755E0,6.435896E1,-3.087319E1,-1.0419907E2,4.0633274E1,-3.998213E2,-1.0072782E1],"categories":[],"categories_nodes":[],"categories_segments":[],"categories_sizes":[],"default_left":[0,0,0,0,0,0,0],"id":99,"left_children":[1,3,5,-1,-1,-1,-1],"loss_changes":[1.0272188E8,1.0672715E8,3.1514102E8,0E0,0E0,0E0,0E0],"parents":[2147483647,0,0,1,1,2,2],"right_children":[2,4,6,-1,-1,-1,-1],"split_conditions":[9.6E1,2.379E3,6.14E2,-1.0419907E2,4.0633274E1,-3.998213E2,-1.0072782E1],"split_indices":[48,5,2,0,0,0,0],"split_type":[0,0,0,0,0,0,0],"sum_hessian":[5.7225E4,1.5553E4,4.1672E4,1.172E3,1.4381E4,4.46E2,4.1226E4],"tree_param":{"num_deleted":"0","num_feature":"200","num_nodes":"7","size_leaf_vector":"1"}},{"base_weights":[6.2151895E0,1.4739357E-1,3.2895135E2,2.4105284E1,-3.2052925E1,-6.979136E2,1.2325867E3],"categories":[],"categories_nodes":[],"categories_segments":[],"categories_sizes":[],"default_left":[0,0,0,0,0,0,0],"id":100,"left_children":[1,3,5,-1,-1,-1,-1],"loss_changes":[1.1152889E8,2.024984E8,4.5323474E9,0E0,0E0,0E0,0E0],"parents":[2147483647,0,0,1,1,2,2],"right_children":[2,4,6,-1,-1,-1,-1],"split_conditions":[1E0,8.454E3,8.454E3,2.4105284E1,-3.2052925E1,-6.979136E2,1.2325867E3],"split_indices":[68,2,2,0,0,0,0],"split_type":[0,0,0,0,0,0,0],"sum_hessian":[5.6951E4,5.5901E4,1.05E3,3.1974E4,2.3927E4,5.88E2,4.62E2],"tree_param":{"num_deleted":"0","num_feature":"200","num_nodes":"7","size_leaf_vector":"1"}},{"base_weights":[-2.894275E0,5.9881127E-1,-4.6371436E2,-9.545106E0,3.4719185E1,7.0291077E2,-7.8987604E2],"categories":[],"categories_nodes":[],"categories_segments":[],"categories_sizes":[],"default_left":[0,0,0,0,0,0,0],"id":101,"left_children":[1,3,5,-1,-1,-1,-1],"loss_changes":[9.179092E7,8.9822424E7,1.06528294E9,0E0,0E0,0E0,0E0],"parents":[2147483647,0,0,1,1,2,2],"right_children":[2,4,6,-1,-1,-1,-1],"split_conditions":[3E0,1.132E4,6.045E3,-9.545106E0,3.4719185E1,7.0291077E2,-7.8987604E2],"split_indices":[73,2,2,0,0,0,0],"split_type":[0,0,0,0,0,0,0],"sum_hessian":[5.7023E4,5.6595E4,4.28E2,4.4038E4,1.2557E4,1.65E2,2.63E2],"tree_param":{"num_deleted":"0","num_feature":"200","num_nodes":"7","size_leaf_vector":"1"}},{"base_weights":[3.5536747E0,1.5691774E2,-3.3463597E0,-4.6642918E1,1.3425742E2,-2.5735306E1,1.1341675E1],"categories":[],"categories_nodes":[],"categories_segments":[],"categories_sizes":[],"default_left":[0,0,0,0,0,0,0],"id":102,"left_children":[1,3,5,-1,-1,-1,-1],"loss_changes":[6.058664E7,8.515685E7,8.013008E7,0E0,0E0,0E0,0E0],"parents":[2147483647,0,0,1,1,2,2],"right_children":[2,4,6,-1,-1,-1,-1],"split_conditions":[1.1E1,6E1,1.26E2,-4.6642918E1,1.3425742E2,-2.5735306E1,1.1341675E1],"split_indices":[38,2,38,0,0,0,0],"split_type":[0,0,0,0,0,0,0],"sum_hessian":[5.7252E4,2.464E3,5.4788E4,8.42E2,1.622E3,1.9042E4,3.5746E4],"tree_param":{"num_deleted":"0","num_feature":"200","num_nodes":"7","size_leaf_vector":"1"}},{"base_weights":[-1.2887468E1,4.8725433E0,-1.1736515E2,-5.375452E0,5.590232E2,-4.351972E2,-7.9448075E0],"categories":[],"categories_nodes":[],"categories_segments":[],"categories_sizes":[],"default_left":[0,0,0,0,0,0,0],"id":103,"left_children":[1,3,5,-1,-1,-1,-1],"loss_changes":[1.0573209E8,9.700719E8,6.842944E8,0E0,0E0,0E0,0E0],"parents":[2147483647,0,0,1,1,2,2],"right_children":[2,4,6,-1,-1,-1,-1],"split_conditions":[1.2611E4,1.2433E4,1.4342E5,-5.375452E0,5.590232E2,-4.351972E2,-7.9448075E0],"split_indices":[2,2,5,0,0,0,0],"split_type":[0,0,0,0,0,0,0],"sum_hessian":[5.6981E4,4.8703E4,8.278E3,4.8046E4,6.57E2,8.95E2,7.383E3],"tree_param":{"num_deleted":"0","num_feature":"200","num_nodes":"7","size_leaf_vector":"1"}},{"base_weights":[6.2733607E0,1.6370708E1,-1.416665E2,1.037119E1,-1.2223032E2,-4.0289272E1,-4.9528015E2],"categories":[],"categories_nodes":[],"categories_segments":[],"categories_sizes":[],"default_left":[0,0,0,0,0,0,0],"id":104,"left_children":[1,3,5,-1,-1,-1,-1],"loss_changes":[8.559409E7,9.188364E7,1.8534498E8,0E0,0E0,0E0,0E0],"parents":[2147483647,0,0,1,1,2,2],"right_children":[2,4,6,-1,-1,-1,-1],"split_conditions":[5.5E1,4E0,1.40289E5,1.037119E1,-1.2223032E2,-4.0289272E1,-4.9528015E2],"split_indices":[56,25,4,0,0,0,0],"split_type":[0,0,0,0,0,0,0],"sum_hessian":[5.7297E4,5.3637E4,3.66E3,5.25E4,1.137E3,3.459E3,2.01E2],"tree_param":{"num_deleted":"0","num_feature":"200","num_nodes":"7","size_leaf_vector":"1"}},{"base_weights":[1.6161116E0,1.08872475E2,-1.05237E1,6.768899E0,6.173761E2,-3.706226E2,3.2723355E0],"categories":[],"categories_nodes":[],"categories_segments":[],"categories_sizes":[],"default_left":[0,0,0,0,0,0,0],"id":105,"left_children":[1,3,5,-1,-1,-1,-1],"loss_changes":[7.42492E7,6.7095405E8,7.1474157E8,0E0,0E0,0E0,0E0],"parents":[2147483647,0,0,1,1,2,2],"right_children":[2,4,6,-1,-1,-1,-1],"split_conditions":[1.389E4,2.11E2,1.7312E4,6.768899E0,6.173761E2,-3.706226E2,3.2723355E0],"split_indices":[5,15,5,0,0,0,0],"split_type":[0,0,0,0,0,0,0],"sum_hessian":[5.7022E4,5.797E3,5.1225E4,5.385E3,4.12E2,1.113E3,5.0112E4],"tree_param":{"num_deleted":"0","num_feature":"200","num_nodes":"7","size_leaf_vector":"1"}},{"base_weights":[-1.2291529E0,1.0001877E2,-1.0728518E1,-5.0008602E1,7.2825935E1,-1.9477693E2,-2.5183008E0],"categories":[],"categories_nodes":[],"categories_segments":[],"categories_sizes":[],"default_left":[0,0,0,0,0,0,0],"id":106,"left_children":[1,3,5,-1,-1,-1,-1],"loss_changes":[5.4909716E7,5.8906124E7,1.1317511E8,0E0,0E0,0E0,0E0],"parents":[2147483647,0,0,1,1,2,2],"right_children":[2,4,6,-1,-1,-1,-1],"split_conditions":[1.06E2,2.2E1,1.42E2,-5.0008602E1,7.2825935E1,-1.9477693E2,-2.5183008E0],"split_indices":[46,15,10,0,0,0,0],"split_type":[0,0,0,0,0,0,0],"sum_hessian":[5.7089E4,4.896E3,5.2193E4,1.062E3,3.834E3,6.6E2,5.1533E4],"tree_param":{"num_deleted":"0","num_feature":"200","num_nodes":"7","size_leaf_vector":"1"}},{"base_weights":[-1.1596326E0,1.3139459E1,-7.396956E1,-2.831039E0,2.0720601E2,-1.127583E1,-1.154946E3],"categories":[],"categories_nodes":[],"categories_segments":[],"categories_sizes":[],"default_left":[0,0,0,0,0,0,0],"id":107,"left_children":[1,3,5,-1,-1,-1,-1],"loss_changes":[5.8984344E7,3.975924E8,1.1185431E9,0E0,0E0,0E0,0E0],"parents":[2147483647,0,0,1,1,2,2],"right_children":[2,4,6,-1,-1,-1,-1],"split_conditions":[2.28E3,2.164E3,1E0,-2.831039E0,2.0720601E2,-1.127583E1,-1.154946E3],"split_indices":[15,15,68,0,0,0,0],"split_type":[0,0,0,0,0,0,0],"sum_hessian":[5.6653E4,4.7354E4,9.299E3,4.5349E4,2.005E3,9.114E3,1.85E2],"tree_param":{"num_deleted":"0","num_feature":"200","num_nodes":"7","size_leaf_vector":"1"}},{"base_weights":[-3.4423714E0,4.0516155E1,-3.8535988E1,5.5882545E0,7.2298065E2,-4.095086E2,-5.711767E-1],"categories":[],"categories_nodes":[],"categories_segments":[],"categories_sizes":[],"default_left":[0,0,0,0,0,0,0],"id":108,"left_children":[1,3,5,-1,-1,-1,-1],"loss_changes":[8.742431E7,1.0903604E9,9.9727226E8,0E0,0E0,0E0,0E0],"parents":[2147483647,0,0,1,1,2,2],"right_children":[2,4,6,-1,-1,-1,-1],"split_conditions":[1.182E3,1E0,6.425E3,5.5882545E0,7.2298065E2,-4.095086E2,-5.711767E-1],"split_indices":[15,68,2,0,0,0,0],"split_type":[0,0,0,0,0,0,0],"sum_hessian":[5.6669E4,2.5157E4,3.1512E4,2.4698E4,4.59E2,1.326E3,3.0186E4],"tree_param":{"num_deleted":"0","num_feature":"200","num_nodes":"7","size_leaf_vector":"1"}},{"base_weights":[3.1826296E-1,4.6922355E0,-2.4215414E2,2.5389961E1,-2.9147633E1,-7.0640985E2,8.289439E2],"categories":[],"categories_nodes":[],"categories_segments":[],"categories_sizes":[],"default_left":[0,0,0,0,0,0,0],"id":109,"left_children":[1,3,5,-1,-1,-1,-1],"loss_changes":[6.051182E7,1.9121688E8,2.6559373E9,0E0,0E0,0E0,0E0],"parents":[2147483647,0,0,1,1,2,2],"right_children":[2,4,6,-1,-1,-1,-1],"split_conditions":[1E0,8.454E3,1.638E3,2.5389961E1,-2.9147633E1,-7.0640985E2,8.289439E2],"split_indices":[68,2,15,0,0,0,0],"split_type":[0,0,0,0,0,0,0],"sum_hessian":[5.7054E4,5.6044E4,1.01E3,3.2179E4,2.3865E4,6.19E2,3.91E2],"tree_param":{"num_deleted":"0","num_feature":"200","num_nodes":"7","size_leaf_vector":"1"}},{"base_weights":[-3.0677907E0,-5.3037216E1,2.2680403E1,-2.122058E1,-1.1916682E3,4.371275E2,-9.6743166E-1],"categories":[],"categories_nodes":[],"categories_segments":[],"categories_sizes":[],"default_left":[0,0,0,0,0,0,0],"id":110,"left_children":[1,3,5,-1,-1,-1,-1],"loss_changes":[7.324991E7,3.460943E8,8.602581E8,0E0,0E0,0E0,0E0],"parents":[2147483647,0,0,1,1,2,2],"right_children":[2,4,6,-1,-1,-1,-1],"split_conditions":[8.67E2,4.15E2,4.657E3,-2.122058E1,-1.1916682E3,4.371275E2,-9.6743166E-1],"split_indices":[15,38,2,0,0,0,0],"split_type":[0,0,0,0,0,0,0],"sum_hessian":[5.693E4,1.9359E4,3.7571E4,1.9306E4,5.3E1,9.8E2,3.6591E4],"tree_param":{"num_deleted":"0","num_feature":"200","num_nodes":"7","size_leaf_vector":"1"}},{"base_weights":[3.7671006E0,9.8277025E0,-3.2436398E2,-3.540846E1,2.8138304E1,8.404078E2,-8.5209546E2],"categories":[],"categories_nodes":[],"categories_segments":[],"categories_sizes":[],"default_left":[0,0,0,0,0,0,0],"id":111,"left_children":[1,3,5,-1,-1,-1,-1],"loss_changes":[1.134967E8,2.4785058E8,3.3801823E9,0E0,0E0,0E0,0E0],"parents":[2147483647,0,0,1,1,2,2],"right_children":[2,4,6,-1,-1,-1,-1],"split_conditions":[1E0,6.0723E4,6.265E3,-3.540846E1,2.8138304E1,8.404078E2,-8.5209546E2],"split_indices":[68,5,2,0,0,0,0],"split_type":[0,0,0,0,0,0,0],"sum_hessian":[5.7069E4,5.6035E4,1.034E3,2.0811E4,3.5224E4,4.29E2,6.05E2],"tree_param":{"num_deleted":"0","num_feature":"200","num_nodes":"7","size_leaf_vector":"1"}},{"base_weights":[-4.824136E0,7.9363884E1,-1.9459152E1,4.5784637E1,-1.1757018E3,-6.4130365E2,-6.2801394E0],"categories":[],"categories_nodes":[],"categories_segments":[],"categories_sizes":[],"default_left":[0,0,0,0,0,0,0],"id":112,"left_children":[1,3,5,-1,-1,-1,-1],"loss_changes":[6.997704E7,4.3768346E8,3.88067E8,0E0,0E0,0E0,0E0],"parents":[2147483647,0,0,1,1,2,2],"right_children":[2,4,6,-1,-1,-1,-1],"split_conditions":[3.73E2,3E0,1.962E3,4.5784637E1,-1.1757018E3,-6.4130365E2,-6.2801394E0],"split_indices":[10,73,2,0,0,0,0],"split_type":[0,0,0,0,0,0,0],"sum_hessian":[5.6793E4,8.41E3,4.8383E4,8.348E3,6.2E1,2.05E2,4.8178E4],"tree_param":{"num_deleted":"0","num_feature":"200","num_nodes":"7","size_leaf_vector":"1"}},{"base_weights":[1.1806291E1,5.697861E0,3.4962387E2,1.9912956E1,-2.3454117E1,-4.1652655E2,9.2678564E2],"categories":[],"categories_nodes":[],"categories_segments":[],"categories_sizes":[],"default_left":[0,0,0,0,0,0,0],"id":113,"left_children":[1,3,5,-1,-1,-1,-1],"loss_changes":[1.1792696E8,1.1872551E8,2.108183E9,0E0,0E0,0E0,0E0],"parents":[2147483647,0,0,1,1,2,2],"right_children":[2,4,6,-1,-1,-1,-1],"split_conditions":[1E0,1.638E3,8.454E3,1.9912956E1,-2.3454117E1,-4.1652655E2,9.2678564E2],"split_indices":[68,15,2,0,0,0,0],"split_type":[0,0,0,0,0,0,0],"sum_hessian":[5.7148E4,5.6134E4,1.014E3,3.3764E4,2.237E4,5.78E2,4.36E2],"tree_param":{"num_deleted":"0","num_feature":"200","num_nodes":"7","size_leaf_vector":"1"}},{"base_weights":[-1.6852883E0,-1.639356E1,1.0463652E2,-2.7535553E0,-1.841757E2,4.0089027E1,1.1128715E3],"categories":[],"categories_nodes":[],"categories_segments":[],"categories_sizes":[],"default_left":[0,0,0,0,0,0,0],"id":114,"left_children":[1,3,5,-1,-1,-1,-1],"loss_changes":[8.907322E7,1.9962254E8,2.8396064E8,0E0,0E0,0E0,0E0],"parents":[2147483647,0,0,1,1,2,2],"right_children":[2,4,6,-1,-1,-1,-1],"split_conditions":[2.598E3,1.2611E4,3E0,-2.7535553E0,-1.841757E2,4.0089027E1,1.1128715E3],"split_indices":[10,2,73,0,0,0,0],"split_type":[0,0,0,0,0,0,0],"sum_hessian":[5.6957E4,5.0036E4,6.921E3,4.8709E4,1.327E3,6.869E3,5.2E1],"tree_param":{"num_deleted":"0","num_feature":"200","num_nodes":"7","size_leaf_vector":"1"}},{"base_weights":[-5.398598E-1,2.9852252E0,-4.9079382E2,1.1923444E1,-3.024039E1,-2.05253E1,-1.664607E3],"categories":[],"categories_nodes":[],"categories_segments":[],"categories_sizes":[],"default_left":[0,0,0,0,0,0,0],"id":115,"left_children":[1,3,5,-1,-1,-1,-1],"loss_changes":[9.852539E7,8.854562E7,5.65658E8,0E0,0E0,0E0,0E0],"parents":[2147483647,0,0,1,1,2,2],"right_children":[2,4,6,-1,-1,-1,-1],"split_conditions":[3E0,1E0,3.97E2,1.1923444E1,-3.024039E1,-2.05253E1,-1.664607E3],"split_indices":[73,190,11,0,0,0,0],"split_type":[0,0,0,0,0,0,0],"sum_hessian":[5.7009E4,5.6603E4,4.06E2,4.2447E4,1.4156E4,3.56E2,5E1],"tree_param":{"num_deleted":"0","num_feature":"200","num_nodes":"7","size_leaf_vector":"1"}},{"base_weights":[1.4346755E0,-7.403956E0,1.5971355E2,-3.734358E-1,-3.124516E2,8.569677E1,-5.978557E2],"categories":[],"categories_nodes":[],"categories_segments":[],"categories_sizes":[],"default_left":[0,0,0,0,0,0,0],"id":116,"left_children":[1,3,5,-1,-1,-1,-1],"loss_changes":[7.993545E7,2.3889984E8,1.1411801E8,0E0,0E0,0E0,0E0],"parents":[2147483647,0,0,1,1,2,2],"right_children":[2,4,6,-1,-1,-1,-1],"split_conditions":[7.27E2,7.01E2,1E0,-3.734358E-1,-3.124516E2,8.569677E1,-5.978557E2],"split_indices":[11,11,68,0,0,0,0],"split_type":[0,0,0,0,0,0,0],"sum_hessian":[5.7137E4,5.4116E4,3.021E3,5.3589E4,5.27E2,2.969E3,5.2E1],"tree_param":{"num_deleted":"0","num_feature":"200","num_nodes":"7","size_leaf_vector":"1"}},{"base_weights":[5.256972E-1,-8.47857E0,1.1074483E2,-1.2666584E0,-2.1523361E2,6.864959E1,-1.01135266E3],"categories":[],"categories_nodes":[],"categories_segments":[],"categories_sizes":[],"default_left":[0,0,0,0,0,0,0],"id":117,"left_children":[1,3,5,-1,-1,-1,-1],"loss_changes":[5.6649556E7,1.3851987E8,3.7682394E8,0E0,0E0,0E0,0E0],"parents":[2147483647,0,0,1,1,2,2],"right_children":[2,4,6,-1,-1,-1,-1],"split_conditions":[6.71E2,6.51E2,1E0,-1.2666584E0,-2.1523361E2,6.864959E1,-1.01135266E3],"split_indices":[11,11,68,0,0,0,0],"split_type":[0,0,0,0,0,0,0],"sum_hessian":[5.7079E4,5.2769E4,4.31E3,5.2117E4,6.52E2,4.241E3,6.9E1],"tree_param":{"num_deleted":"0","num_feature":"200","num_nodes":"7","size_leaf_vector":"1"}},{"base_weights":[-5.2038145E-1,-3.8108604E0,4.4135406E2,-5.267982E0,7.471048E1,-3.415446E2,9.207924E2],"categories":[],"categories_nodes":[],"categories_segments":[],"categories_sizes":[],"default_left":[0,0,0,0,0,0,0],"id":118,"left_children":[1,3,5,-1,-1,-1,-1],"loss_changes":[8.320706E7,7.150305E7,7.774234E8,0E0,0E0,0E0,0E0],"parents":[2147483647,0,0,1,1,2,2],"right_children":[2,4,6,-1,-1,-1,-1],"split_conditions":[3E0,1E0,8.454E3,-5.267982E0,7.471048E1,-3.415446E2,9.207924E2],"split_indices":[73,17,2,0,0,0,0],"split_type":[0,0,0,0,0,0,0],"sum_hessian":[5.7225E4,5.6803E4,4.22E2,5.4312E4,2.491E3,2.4E2,1.82E2],"tree_param":{"num_deleted":"0","num_feature":"200","num_nodes":"7","size_leaf_vector":"1"}},{"base_weights":[-1.7721087E0,9.601045E0,-1.1108348E2,1.9291619E0,3.9524994E2,-3.3785394E2,-1.2161137E1],"categories":[],"categories_nodes":[],"categories_segments":[],"categories_sizes":[],"default_left":[0,0,0,0,0,0,0],"id":119,"left_children":[1,3,5,-1,-1,-1,-1],"loss_changes":[7.0947624E7,2.372629E8,2.828643E8,0E0,0E0,0E0,0E0],"parents":[2147483647,0,0,1,1,2,2],"right_children":[2,4,6,-1,-1,-1,-1],"split_conditions":[1.335E4,1.30202E5,2.708E3,1.9291619E0,3.9524994E2,-3.3785394E2,-1.2161137E1],"split_indices":[2,6,10,0,0,0,0],"split_type":[0,0,0,0,0,0,0],"sum_hessian":[5.7066E4,5.1689E4,5.377E3,5.1361E4,3.28E2,6.45E2,4.732E3],"tree_param":{"num_deleted":"0","num_feature":"200","num_nodes":"7","size_leaf_vector":"1"}},{"base_weights":[5.2823634E0,-3.98437E1,3.1810436E1,-3.1797966E1,7.1308E2,4.4550342E2,3.3693922E0],"categories":[],"categories_nodes":[],"categories_segments":[],"categories_sizes":[],"default_left":[0,0,0,0,0,0,0],"id":120,"left_children":[1,3,5,-1,-1,-1,-1],"loss_changes":[6.809992E7,9.688042E8,8.1946304E8,0E0,0E0,0E0,0E0],"parents":[2147483647,0,0,1,1,2,2],"right_children":[2,4,6,-1,-1,-1,-1],"split_conditions":[6.0723E4,1E0,5.572E3,-3.1797966E1,7.1308E2,4.4550342E2,3.3693922E0],"split_indices":[5,68,2,0,0,0,0],"split_type":[0,0,0,0,0,0,0],"sum_hessian":[5.6885E4,2.106E4,3.5825E4,2.0682E4,3.78E2,9.16E2,3.4909E4],"tree_param":{"num_deleted":"0","num_feature":"200","num_nodes":"7","size_leaf_vector":"1"}},{"base_weights":[-1.8414142E0,6.4551506E1,-1.7904764E1,4.29892E1,-7.108684E2,-2.5323322E2,4.9382088E-1],"categories":[],"categories_nodes":[],"categories_segments":[],"categories_sizes":[],"default_left":[0,0,0,0,0,0,0],"id":121,"left_children":[1,3,5,-1,-1,-1,-1],"loss_changes":[6.0383844E7,5.0556848E8,4.5897834E8,0E0,0E0,0E0,0E0],"parents":[2147483647,0,0,1,1,2,2],"right_children":[2,4,6,-1,-1,-1,-1],"split_conditions":[5.1E2,1E0,2.952E3,4.29892E1,-7.108684E2,-2.5323322E2,4.9382088E-1],"split_indices":[10,68,2,0,0,0,0],"split_type":[0,0,0,0,0,0,0],"sum_hessian":[5.6617E4,1.1029E4,4.5588E4,1.0837E4,1.92E2,1.573E3,4.4015E4],"tree_param":{"num_deleted":"0","num_feature":"200","num_nodes":"7","size_leaf_vector":"1"}},{"base_weights":[2.4062247E0,6.243893E1,-1.7229927E1,4.445791E0,8.0712964E2,-4.603028E2,-2.803941E-1],"categories":[],"categories_nodes":[],"categories_segments":[],"categories_sizes":[],"default_left":[0,0,0,0,0,0,0],"id":122,"left_children":[1,3,5,-1,-1,-1,-1],"loss_changes":[6.723576E7,1.2515091E9,6.9997766E8,0E0,0E0,0E0,0E0],"parents":[2147483647,0,0,1,1,2,2],"right_children":[2,4,6,-1,-1,-1,-1],"split_conditions":[3.8882E4,3.2E3,3.54E3,4.445791E0,8.0712964E2,-4.603028E2,-2.803941E-1],"split_indices":[5,2,2,0,0,0,0],"split_type":[0,0,0,0,0,0,0],"sum_hessian":[5.7035E4,1.4057E4,4.2978E4,1.3631E4,4.26E2,7.16E2,4.2262E4],"tree_param":{"num_deleted":"0","num_feature":"200","num_nodes":"7","size_leaf_vector":"1"}},{"base_weights":[-1.324761E0,-2.8747604E1,3.3597015E1,-7.7220645E0,-1.0760249E2,1.8886711E1,-2.1011714E2],"categories":[],"categories_nodes":[],"categories_segments":[],"categories_sizes":[],"default_left":[0,0,0,0,0,0,0],"id":123,"left_children":[1,3,5,-1,-1,-1,-1],"loss_changes":[5.4490544E7,7.828174E7,8.944773E7,0E0,0E0,0E0,0E0],"parents":[2147483647,0,0,1,1,2,2],"right_children":[2,4,6,-1,-1,-1,-1],"split_conditions":[2E0,2.629E3,4.03E2,-7.7220645E0,-1.0760249E2,1.8886711E1,-2.1011714E2],"split_indices":[52,15,38,0,0,0,0],"split_type":[0,0,0,0,0,0,0],"sum_hessian":[5.6898E4,3.1871E4,2.5027E4,3.0101E4,1.77E3,2.4659E4,3.68E2],"tree_param":{"num_deleted":"0","num_feature":"200","num_nodes":"7","size_leaf_vector":"1"}},{"base_weights":[-1.6600851E0,-3.1656752E0,6.048909E2,-3.601812E1,3.5439985E0,1.7028365E2,2.948447E2],"categories":[],"categories_nodes":[],"categories_segments":[],"categories_sizes":[],"default_left":[0,0,0,0,0,0,0],"id":124,"left_children":[1,3,5,-1,-1,-1,-1],"loss_changes":[5.200325E7,4.609688E7,8.87456E5,0E0,0E0,0E0,0E0],"parents":[2147483647,0,0,1,1,2,2],"right_children":[2,4,6,-1,-1,-1,-1],"split_conditions":[1.52E2,1.8041E4,1E0,-3.601812E1,3.5439985E0,1.7028365E2,2.948447E2],"split_indices":[1,5,31,0,0,0,0],"split_type":[0,0,0,0,0,0,0],"sum_hessian":[5.6942E4,5.6802E4,1.4E2,7.186E3,4.9616E4,1.9E1,1.21E2],"tree_param":{"num_deleted":"0","num_feature":"200","num_nodes":"7","size_leaf_vector":"1"}},{"base_weights":[1.2176836E0,-2.6116872E0,2.1830336E2,1.7561018E1,-1.0843204E1,5.2958244E1,1.7370245E3],"categories":[],"categories_nodes":[],"categories_segments":[],"categories_sizes":[],"default_left":[0,0,0,0,0,0,0],"id":125,"left_children":[1,3,5,-1,-1,-1,-1],"loss_changes":[4.733405E7,4.7478404E7,3.6194854E8,0E0,0E0,0E0,0E0],"parents":[2147483647,0,0,1,1,2,2],"right_children":[2,4,6,-1,-1,-1,-1],"split_conditions":[4.22E2,4.657E3,6E1,1.7561018E1,-1.0843204E1,5.2958244E1,1.7370245E3],"split_indices":[38,2,56,0,0,0,0],"split_type":[0,0,0,0,0,0,0],"sum_hessian":[5.6938E4,5.5952E4,9.86E2,1.8984E4,3.6968E4,9.59E2,2.7E1],"tree_param":{"num_deleted":"0","num_feature":"200","num_nodes":"7","size_leaf_vector":"1"}},{"base_weights":[-6.725258E0,-3.9019947E1,1.9361107E1,-2.8763609E1,5.86554E2,1.8610102E1,-5.0943124E2],"categories":[],"categories_nodes":[],"categories_segments":[],"categories_sizes":[],"default_left":[0,0,0,0,0,0,0],"id":126,"left_children":[1,3,5,-1,-1,-1,-1],"loss_changes":[4.7808172E7,7.731447E8,7.3839443E8,0E0,0E0,0E0,0E0],"parents":[2147483647,0,0,1,1,2,2],"right_children":[2,4,6,-1,-1,-1,-1],"split_conditions":[1.309E3,1E0,1E0,-2.8763609E1,5.86554E2,1.8610102E1,-5.0943124E2],"split_indices":[10,68,68,0,0,0,0],"split_type":[0,0,0,0,0,0,0],"sum_hessian":[5.6747E4,2.5356E4,3.1391E4,2.4914E4,4.42E2,3.0817E4,5.74E2],"tree_param":{"num_deleted":"0","num_feature":"200","num_nodes":"7","size_leaf_vector":"1"}},{"base_weights":[2.2868538E0,3.3502266E0,-7.888647E2,1.1183807E1,-1.6651817E1,-3.2272333E2,-1.7376636E3],"categories":[],"categories_nodes":[],"categories_segments":[],"categories_sizes":[],"default_left":[0,0,0,0,0,0,0],"id":127,"left_children":[1,3,5,-1,-1,-1,-1],"loss_changes":[4.7633908E7,4.6523724E7,1.76832E7,0E0,0E0,0E0,0E0],"parents":[2147483647,0,0,1,1,2,2],"right_children":[2,4,6,-1,-1,-1,-1],"split_conditions":[1E0,9.611E3,1E0,1.1183807E1,-1.6651817E1,-3.2272333E2,-1.7376636E3],"split_indices":[62,2,68,0,0,0,0],"split_type":[0,0,0,0,0,0,0],"sum_hessian":[5.6616E4,5.6541E4,7.5E1,3.6966E4,1.9575E4,7.4E1,1E0],"tree_param":{"num_deleted":"0","num_feature":"200","num_nodes":"7","size_leaf_vector":"1"}}]},"name":"gbtree"},"learner_model_param":{"base_score":"7.249267E4","boost_from_average":"1","num_class":"0","num_feature":"200","num_target":"1"},"objective":{"name":"reg:squarederror","reg_loss_param":{"scale_pos_weight":"1"}}},"version":[2,0,3]}